{"learner":{"attributes":{"best_iteration":"499","best_score":"0.9157732868545267"},"feature_names":[],"feature_types":[],"gradient_booster":{"model":{"gbtree_model_param":{"num_parallel_tree":"1","num_trees":"500"},"iteration_indptr":[0,1,2,3,4,5,6,7,8,9,10,11,12,13,14,15,16,17,18,19,20,21,22,23,24,25,26,27,28,29,30,31,32,33,34,35,36,37,38,39,40,41,42,43,44,45,46,47,48,49,50,51,52,53,54,55,56,57,58,59,60,61,62,63,64,65,66,67,68,69,70,71,72,73,74,75,76,77,78,79,80,81,82,83,84,85,86,87,88,89,90,91,92,93,94,95,96,97,98,99,100,101,102,103,104,105,106,107,108,109,110,111,112,113,114,115,116,117,118,119,120,121,122,123,124,125,126,127,128,129,130,131,132,133,134,135,136,137,138,139,140,141,142,143,144,145,146,147,148,149,150,151,152,153,154,155,156,157,158,159,160,161,162,163,164,165,166,167,168,169,170,171,172,173,174,175,176,177,178,179,180,181,182,183,184,185,186,187,188,189,190,191,192,193,194,195,196,197,198,199,200,201,202,203,204,205,206,207,208,209,210,211,212,213,214,215,216,217,218,219,220,221,222,223,224,225,226,227,228,229,230,231,232,233,234,235,236,237,238,239,240,241,242,243,244,245,246,247,248,249,250,251,252,253,254,255,256,257,258,259,260,261,262,263,264,265,266,267,268,269,270,271,272,273,274,275,276,277,278,279,280,281,282,283,284,285,286,287,288,289,290,291,292,293,294,295,296,297,298,299,300,301,302,303,304,305,306,307,308,309,310,311,312,313,314,315,316,317,318,319,320,321,322,323,324,325,326,327,328,329,330,331,332,333,334,335,336,337,338,339,340,341,342,343,344,345,346,347,348,349,350,351,352,353,354,355,356,357,358,359,360,361,362,363,364,365,366,367,368,369,370,371,372,373,374,375,376,377,378,379,380,381,382,383,384,385,386,387,388,389,390,391,392,393,394,395,396,397,398,399,400,401,402,403,404,405,406,407,408,409,410,411,412,413,414,415,416,417,418,419,420,421,422,423,424,425,426,427,428,429,430,431,432,433,434,435,436,437,438,439,440,441,442,443,444,445,446,447,448,449,450,451,452,453,454,455,456,457,458,459,460,461,462,463,464,465,466,467,468,469,470,471,472,473,474,475,476,477,478,479,480,481,482,483,484,485,486,487,488,489,490,491,492,493,494,495,496,497,498,499,500],"tree_info":[0,0,0,0,0,0,0,0,0,0,0,0,0,0,0,0,0,0,0,0,0,0,0,0,0,0,0,0,0,0,0,0,0,0,0,0,0,0,0,0,0,0,0,0,0,0,0,0,0,0,0,0,0,0,0,0,0,0,0,0,0,0,0,0,0,0,0,0,0,0,0,0,0,0,0,0,0,0,0,0,0,0,0,0,0,0,0,0,0,0,0,0,0,0,0,0,0,0,0,0,0,0,0,0,0,0,0,0,0,0,0,0,0,0,0,0,0,0,0,0,0,0,0,0,0,0,0,0,0,0,0,0,0,0,0,0,0,0,0,0,0,0,0,0,0,0,0,0,0,0,0,0,0,0,0,0,0,0,0,0,0,0,0,0,0,0,0,0,0,0,0,0,0,0,0,0,0,0,0,0,0,0,0,0,0,0,0,0,0,0,0,0,0,0,0,0,0,0,0,0,0,0,0,0,0,0,0,0,0,0,0,0,0,0,0,0,0,0,0,0,0,0,0,0,0,0,0,0,0,0,0,0,0,0,0,0,0,0,0,0,0,0,0,0,0,0,0,0,0,0,0,0,0,0,0,0,0,0,0,0,0,0,0,0,0,0,0,0,0,0,0,0,0,0,0,0,0,0,0,0,0,0,0,0,0,0,0,0,0,0,0,0,0,0,0,0,0,0,0,0,0,0,0,0,0,0,0,0,0,0,0,0,0,0,0,0,0,0,0,0,0,0,0,0,0,0,0,0,0,0,0,0,0,0,0,0,0,0,0,0,0,0,0,0,0,0,0,0,0,0,0,0,0,0,0,0,0,0,0,0,0,0,0,0,0,0,0,0,0,0,0,0,0,0,0,0,0,0,0,0,0,0,0,0,0,0,0,0,0,0,0,0,0,0,0,0,0,0,0,0,0,0,0,0,0,0,0,0,0,0,0,0,0,0,0,0,0,0,0,0,0,0,0,0,0,0,0,0,0,0,0,0,0,0,0,0,0,0,0,0,0,0,0,0,0,0,0,0,0,0,0,0,0,0,0,0,0,0,0,0,0,0,0,0,0,0,0,0,0,0,0,0,0,0,0,0,0,0,0,0,0,0,0,0,0,0,0,0,0,0,0,0,0,0,0,0,0,0,0,0],"trees":[{"base_weights":[2.1107618E-3,6.832472E-1,-7.429174E-1,-6.878774E-2,1.137893E0,-1.2907571E0,-8.869946E-2,3.654245E-1,-6.145706E-1,3.2317808E-1,-5.588857E-1,3.755778E-2,-1.2492347E-2,1.3959054E0,8.624524E-1,2.4084201E-2,6.0373474E-2,-9.838025E-3,-5.400644E-2,-9.7873145E-1,-1.5294611E0,3.5879456E-2,-5.2374112E-3,-2.9630939E-2,-6.8768196E-2,-6.41502E-3,-5.048116E-2,7.547744E-2,5.316175E-2,-8.2533546E-2,-6.4670764E-2],"categories":[],"categories_nodes":[],"categories_segments":[],"categories_sizes":[],"default_left":[0,0,0,0,0,0,0,0,0,0,0,0,0,0,0,0,0,0,0,0,0,0,0,0,0,0,0,0,0,0,0],"id":0,"left_children":[1,3,5,9,13,19,7,11,17,21,25,-1,-1,27,15,-1,-1,-1,-1,23,29,-1,-1,-1,-1,-1,-1,-1,-1,-1,-1],"loss_changes":[9.780518E3,3.4425405E3,3.2989858E3,7.290972E2,4.4473584E2,3.716328E2,1.0023282E3,5.347357E2,3.7809552E2,3.5601624E2,3.271902E2,0E0,0E0,1.20822754E2,3.9846875E2,0E0,0E0,0E0,0E0,3.3214258E2,7.9021484E1,0E0,0E0,0E0,0E0,0E0,0E0,0E0,0E0,0E0,0E0],"parents":[2147483647,0,0,1,1,2,2,6,6,3,3,7,7,4,4,14,14,8,8,5,5,9,9,19,19,10,10,13,13,20,20],"right_children":[2,4,6,10,14,20,8,12,18,22,26,-1,-1,28,16,-1,-1,-1,-1,24,30,-1,-1,-1,-1,-1,-1,-1,-1,-1,-1],"split_conditions":[-3.7803477E-1,-2.990441E-1,2.5452814E-1,-8.153046E-1,2.00001E0,3.914791E-1,6.1222005E-1,-5.194963E-2,-2.128135E-1,2.00001E0,2.00001E0,3.755778E-2,-1.2492347E-2,-6.5832824E-1,7.158383E-1,2.4084201E-2,6.0373474E-2,-9.838025E-3,-5.400644E-2,2.00001E0,-4.1437164E-1,3.5879456E-2,-5.2374112E-3,-2.9630939E-2,-6.8768196E-2,-6.41502E-3,-5.048116E-2,7.547744E-2,5.316175E-2,-8.2533546E-2,-6.4670764E-2],"split_indices":[4,5,5,4,24,3,4,14,14,24,24,0,0,4,5,0,0,0,0,24,5,0,0,0,0,0,0,0,0,0,0],"split_type":[0,0,0,0,0,0,0,0,0,0,0,0,0,0,0,0,0,0,0,0,0,0,0,0,0,0,0,0,0,0,0],"sum_hessian":[1.9271254E4,1.0067343E4,9.20391E3,3.793432E3,6.273911E3,5.008684E3,4.195226E3,2.2513467E3,1.9438793E3,2.1079202E3,1.6855116E3,1.3836663E3,8.6768054E2,3.2373418E3,3.0365696E3,1.444635E3,1.5919346E3,1.0252249E3,9.186544E2,2.1731367E3,2.8355474E3,1.0965634E3,1.01135693E3,1.1024353E3,1.0707015E3,8.626831E2,8.228285E2,2.4103904E3,8.269514E2,1.8695424E3,9.660051E2],"tree_param":{"num_deleted":"0","num_feature":"43215","num_nodes":"31","size_leaf_vector":"1"}},{"base_weights":[-2.2568428E-3,6.113482E-1,-7.5393784E-1,8.910475E-1,2.2347784E-1,-4.3077162E-1,-1.0767055E0,5.6307346E-1,-1.9652918E-1,-7.686738E-2,-8.326583E-1,1.1785288E0,6.3160366E-1,-6.842224E-1,-1.2554216E0,4.091498E-2,1.3946347E-2,1.4289352E-2,-1.5772434E-2,4.3470155E-2,1.648358E-2,6.4535947E-3,-2.312942E-2,-2.6104325E-2,-5.2291106E-2,-1.7439447E-2,-4.6549242E-2,6.642773E-2,4.87185E-2,-5.0844975E-2,-6.8650655E-2],"categories":[],"categories_nodes":[],"categories_segments":[],"categories_sizes":[],"default_left":[0,0,0,0,0,0,0,0,0,0,0,0,0,0,0,0,0,0,0,0,0,0,0,0,0,0,0,0,0,0,0],"id":1,"left_children":[1,3,5,11,7,9,13,19,21,17,23,27,15,25,29,-1,-1,-1,-1,-1,-1,-1,-1,-1,-1,-1,-1,-1,-1,-1,-1],"loss_changes":[8.85519E3,1.1465364E3,8.9956494E2,4.5729688E2,6.3198334E2,6.1341516E2,3.018994E2,1.748675E2,1.7169765E2,1.986312E2,1.3315918E2,8.7897705E1,2.1245581E2,1.1163959E2,8.175635E1,0E0,0E0,0E0,0E0,0E0,0E0,0E0,0E0,0E0,0E0,0E0,0E0,0E0,0E0,0E0,0E0],"parents":[2147483647,0,0,1,1,2,2,4,4,5,5,3,3,6,6,12,12,9,9,7,7,8,8,10,10,13,13,11,11,14,14],"right_children":[2,4,6,12,8,10,14,20,22,18,24,28,16,26,30,-1,-1,-1,-1,-1,-1,-1,-1,-1,-1,-1,-1,-1,-1,-1,-1],"split_conditions":[-3.06207E-1,-7.821825E-1,6.29162E-1,-3.1117016E-1,-1.553384E-1,-2.128135E-1,-6.036415E-1,-2.3933555E-1,-1.5379043E-1,-4.036935E-1,-3.4596303E-1,1.8839002E-1,3.5948023E-1,-4.0666646E-1,-5.7688487E-1,4.091498E-2,1.3946347E-2,1.4289352E-2,-1.5772434E-2,4.3470155E-2,1.648358E-2,6.4535947E-3,-2.312942E-2,-2.6104325E-2,-5.2291106E-2,-1.7439447E-2,-4.6549242E-2,6.642773E-2,4.87185E-2,-5.0844975E-2,-6.8650655E-2],"split_indices":[3,3,3,14,14,14,14,9,9,18,18,9,9,13,18,0,0,0,0,0,0,0,0,0,0,0,0,0,0,0,0],"split_type":[0,0,0,0,0,0,0,0,0,0,0,0,0,0,0,0,0,0,0,0,0,0,0,0,0,0,0,0,0,0,0],"sum_hessian":[1.919686E4,1.0569253E4,8.627605E3,6.140179E3,4.429074E3,4.3123076E3,4.3152983E3,2.4487793E3,1.9802949E3,2.2936736E3,2.0186339E3,2.9110244E3,3.2291548E3,1.3516769E3,2.9636213E3,2.1105671E3,1.1185876E3,9.1009296E2,1.3835807E3,1.0577733E3,1.3910059E3,8.907353E2,1.0895596E3,8.2300104E2,1.1956328E3,5.7392816E2,7.7774866E2,1.6747963E3,1.2362281E3,9.817966E2,1.9818247E3],"tree_param":{"num_deleted":"0","num_feature":"43215","num_nodes":"31","size_leaf_vector":"1"}},{"base_weights":[-4.09226E-3,5.87749E-1,-7.2785944E-1,-5.1427055E-2,1.0791609E0,-1.2251201E0,-9.92798E-2,3.4967458E-1,-4.8181525E-1,3.163856E-1,-5.384684E-1,-2.5532746E-3,-4.5494206E-2,1.2668073E0,7.414199E-1,3.5793222E-2,-3.8881046E-3,3.557847E-2,-5.7852278E-3,-7.6821223E-3,-4.808384E-2,-9.796757E-1,-1.4726695E0,-2.9231852E-2,-6.203711E-2,5.2989583E-2,1.9459724E-2,7.309332E-2,5.330171E-2,-7.7081956E-2,-5.814898E-2],"categories":[],"categories_nodes":[],"categories_segments":[],"categories_sizes":[],"default_left":[0,0,0,0,0,0,0,0,0,0,0,0,0,0,0,0,0,0,0,0,0,0,0,0,0,0,0,0,0,0,0],"id":2,"left_children":[1,3,5,7,13,21,9,15,11,17,19,-1,-1,27,25,-1,-1,-1,-1,-1,-1,23,29,-1,-1,-1,-1,-1,-1,-1,-1],"loss_changes":[8.237287E3,3.322966E3,2.703855E3,7.941286E2,3.7811084E2,2.9201758E2,6.978957E2,3.7276578E2,4.0912225E2,3.3548108E2,3.0257605E2,0E0,0E0,1.4895947E2,2.394032E2,0E0,0E0,0E0,0E0,0E0,0E0,2.4970093E2,4.952539E1,0E0,0E0,0E0,0E0,0E0,0E0,0E0,0E0],"parents":[2147483647,0,0,1,1,2,2,3,3,6,6,8,8,4,4,7,7,9,9,10,10,5,5,21,21,14,14,13,13,22,22],"right_children":[2,4,6,8,14,22,10,16,12,18,20,-1,-1,28,26,-1,-1,-1,-1,-1,-1,24,30,-1,-1,-1,-1,-1,-1,-1,-1],"split_conditions":[-3.06207E-1,-9.145451E-2,3.0065915E-1,2.00001E0,-7.3267215E-1,2.00001E0,6.5132684E-1,-8.1540835E-1,-8.3648366E-1,2.00001E0,2.00001E0,-2.5532746E-3,-4.5494206E-2,2.00001E0,2.00001E0,3.5793222E-2,-3.8881046E-3,3.557847E-2,-5.7852278E-3,-7.6821223E-3,-4.808384E-2,3.914791E-1,-6.8389006E-2,-2.9231852E-2,-6.203711E-2,5.2989583E-2,1.9459724E-2,7.309332E-2,5.330171E-2,-7.7081956E-2,-5.814898E-2],"split_indices":[3,5,5,24,3,24,3,3,3,24,24,0,0,24,24,0,0,0,0,0,0,3,5,0,0,0,0,0,0,0,0],"split_type":[0,0,0,0,0,0,0,0,0,0,0,0,0,0,0,0,0,0,0,0,0,0,0,0,0,0,0,0,0,0,0],"sum_hessian":[1.9228037E4,1.0578192E4,8.649846E3,4.598218E3,5.9799746E3,4.828856E3,3.8209897E3,2.3801846E3,2.218033E3,1.9632102E3,1.8577797E3,1.1061124E3,1.1119205E3,3.8424094E3,2.137565E3,1.2815723E3,1.0986123E3,1.0250586E3,9.3815155E2,9.737268E2,8.8405286E2,2.4272266E3,2.4016294E3,9.670907E2,1.4601359E3,1.1216826E3,1.0158824E3,1.9457532E3,1.8966562E3,1.9609397E3,4.4068967E2],"tree_param":{"num_deleted":"0","num_feature":"43215","num_nodes":"31","size_leaf_vector":"1"}},{"base_weights":[-2.4232215E-3,5.522229E-1,-7.005636E-1,-6.822271E-2,1.02637E0,-1.2065439E0,-1.2069543E-1,3.234626E-1,-4.944081E-1,2.6785558E-1,-5.179728E-1,1.2010639E0,6.966896E-1,-4.7330003E-2,-1.1439791E-2,3.0998597E-2,-8.3686195E-5,-2.4056397E-3,3.1169673E-2,1.6472282E-2,4.779688E-2,-1.2204426E-2,-4.347554E-2,-9.5257676E-1,-1.3607862E0,-5.885118E-2,-2.6607767E-2,4.7331866E-2,6.7351E-2,-5.8789182E-2,-7.2353326E-2],"categories":[],"categories_nodes":[],"categories_segments":[],"categories_sizes":[],"default_left":[0,0,0,0,0,0,0,0,0,0,0,0,0,0,0,0,0,0,0,0,0,0,0,0,0,0,0,0,0,0,0],"id":3,"left_children":[1,3,5,7,11,23,9,15,13,17,21,27,19,-1,-1,-1,-1,-1,-1,-1,-1,-1,-1,25,29,-1,-1,-1,-1,-1,-1],"loss_changes":[7.444993E3,3.1520845E3,2.4973647E3,7.7507745E2,3.489453E2,1.7676709E2,6.12591E2,2.3326404E2,2.6685052E2,2.2543767E2,1.887024E2,1.460918E2,2.0018445E2,0E0,0E0,0E0,0E0,0E0,0E0,0E0,0E0,0E0,0E0,1.617622E2,4.3402832E1,0E0,0E0,0E0,0E0,0E0,0E0],"parents":[2147483647,0,0,1,1,2,2,3,3,6,6,4,4,8,8,7,7,9,9,12,12,10,10,5,5,23,23,11,11,24,24],"right_children":[2,4,6,8,12,24,10,16,14,18,22,28,20,-1,-1,-1,-1,-1,-1,-1,-1,-1,-1,26,30,-1,-1,-1,-1,-1,-1],"split_conditions":[-2.8468245E-1,-9.145451E-2,2.083971E-1,-8.153046E-1,-7.054002E-1,3.7331367E-1,6.341544E-1,1.7299788E-2,-1.0832714E0,1.0387554E0,-9.62934E-2,6.005108E-1,6.927728E-1,-4.7330003E-2,-1.1439791E-2,3.0998597E-2,-8.3686195E-5,-2.4056397E-3,3.1169673E-2,1.6472282E-2,4.779688E-2,-1.2204426E-2,-4.347554E-2,-4.3743715E-1,-5.3874344E-1,-5.885118E-2,-2.6607767E-2,4.7331866E-2,6.7351E-2,-5.8789182E-2,-7.2353326E-2],"split_indices":[4,5,5,4,4,3,4,9,5,5,13,5,5,0,0,0,0,0,0,0,0,0,0,5,9,0,0,0,0,0,0],"split_type":[0,0,0,0,0,0,0,0,0,0,0,0,0,0,0,0,0,0,0,0,0,0,0,0,0,0,0,0,0,0,0],"sum_hessian":[1.9224736E4,1.0713486E4,8.51125E3,4.641155E3,6.072331E3,4.5446274E3,3.9666228E3,2.4185913E3,2.2225632E3,2.0055002E3,1.9611227E3,3.9674055E3,2.1049255E3,8.214763E2,1.401087E3,1.2645099E3,1.1540814E3,1.0622965E3,9.432037E2,8.719767E2,1.2329489E3,1.1032621E3,8.5786053E2,1.719903E3,2.8247244E3,1.1201163E3,5.997865E2,1.4490125E3,2.5183933E3,9.030418E2,1.9216826E3],"tree_param":{"num_deleted":"0","num_feature":"43215","num_nodes":"31","size_leaf_vector":"1"}},{"base_weights":[-3.8014075E-3,4.8906922E-1,-6.996334E-1,-2.3063846E-1,8.820557E-1,-1.1452245E0,-1.375629E-1,1.7004275E-1,-6.455874E-1,2.574941E-1,-5.9180933E-1,5.9917396E-1,1.1545461E0,4.7122043E-2,1.1570337E-2,2.6340416E-2,-1.6936786E-2,3.2867387E-2,-8.93653E-3,-1.3188246E-2,-5.194324E-2,-6.676588E-3,-4.3843284E-2,-9.324472E-1,-1.3618491E0,-6.0596485E-2,-2.9523844E-2,6.434766E-2,4.026092E-2,-5.7938155E-2,-7.1771435E-2],"categories":[],"categories_nodes":[],"categories_segments":[],"categories_sizes":[],"default_left":[0,0,0,0,0,0,0,0,0,0,0,0,0,0,0,0,0,0,0,0,0,0,0,0,0,0,0,0,0,0,0],"id":4,"left_children":[1,3,5,7,11,23,9,15,19,17,21,13,27,-1,-1,-1,-1,-1,-1,-1,-1,-1,-1,25,29,-1,-1,-1,-1,-1,-1],"loss_changes":[6.538536E3,3.1567214E3,1.9796816E3,6.555865E2,5.557549E2,2.0196484E2,6.27657E2,3.6438525E2,2.9058093E2,3.2645523E2,2.1240442E2,4.4718018E2,1.6898535E2,0E0,0E0,0E0,0E0,0E0,0E0,0E0,0E0,0E0,0E0,2.12182E2,3.0952637E1,0E0,0E0,0E0,0E0,0E0,0E0],"parents":[2147483647,0,0,1,1,2,2,3,3,6,6,4,4,11,11,7,7,9,9,8,8,10,10,5,5,23,23,12,12,24,24],"right_children":[2,4,6,8,12,24,10,16,20,18,22,14,28,-1,-1,-1,-1,-1,-1,-1,-1,-1,-1,26,30,-1,-1,-1,-1,-1,-1],"split_conditions":[-1.9726497E-1,-3.9130613E-1,3.0065915E-1,-8.101295E-1,6.927728E-1,2.00001E0,-2.128135E-1,-9.4310984E-2,2.00001E0,2.00001E0,4.4921523E-1,2.00001E0,3.0042154E-1,4.7122043E-2,1.1570337E-2,2.6340416E-2,-1.6936786E-2,3.2867387E-2,-8.93653E-3,-1.3188246E-2,-5.194324E-2,-6.676588E-3,-4.3843284E-2,-5.758302E-1,-8.078067E-1,-6.0596485E-2,-2.9523844E-2,6.434766E-2,4.026092E-2,-5.7938155E-2,-7.1771435E-2],"split_indices":[3,5,5,3,5,24,14,14,24,24,3,24,14,0,0,0,0,0,0,0,0,0,0,5,18,0,0,0,0,0,0],"split_type":[0,0,0,0,0,0,0,0,0,0,0,0,0,0,0,0,0,0,0,0,0,0,0,0,0,0,0,0,0,0,0],"sum_hessian":[1.9063281E4,1.1159265E4,7.904016E3,3.9414268E3,7.217838E3,4.4082573E3,3.4957588E3,2.0054872E3,1.9359397E3,1.8699238E3,1.625835E3,3.5429636E3,3.6748745E3,1.8317141E3,1.7112494E3,1.1788317E3,8.266555E2,9.753701E2,8.945537E2,9.831228E2,9.528169E2,6.240441E2,1.00179083E3,2.2265537E3,2.1817036E3,1.2238185E3,1.0027353E3,2.6628716E3,1.0120029E3,5.8468146E2,1.5970221E3],"tree_param":{"num_deleted":"0","num_feature":"43215","num_nodes":"31","size_leaf_vector":"1"}},{"base_weights":[1.0697286E-3,5.8136725E-1,-5.5098635E-1,-1.0236864E0,-1.6624842E-2,-4.9021684E-2,9.5280576E-1,4.0907216E-1,-3.991075E-1,4.576717E-1,-3.9002272E-1,-1.9755505E-3,-4.250462E-2,3.6990117E-2,-4.6279314E-3,4.290036E-4,-4.0392198E-2,1.197923E0,7.161419E-1,-7.839134E-1,-1.2704033E0,2.0300526E-2,5.1544722E-2,-2.229984E-2,-5.553658E-2,3.8847174E-2,5.6989067E-3,4.390322E-2,6.484348E-2,-6.852907E-2,-5.3101834E-2],"categories":[],"categories_nodes":[],"categories_segments":[],"categories_sizes":[],"default_left":[0,0,0,0,0,0,0,0,0,0,0,0,0,0,0,0,0,0,0,0,0,0,0,0,0,0,0,0,0,0,0],"id":5,"left_children":[1,5,3,19,7,9,17,13,11,25,15,-1,-1,-1,-1,-1,-1,27,21,23,29,-1,-1,-1,-1,-1,-1,-1,-1,-1,-1],"loss_changes":[6.1049604E3,2.175479E3,2.4668093E3,3.0554883E2,7.4670825E2,5.9551825E2,3.382793E2,3.6015283E2,3.9171262E2,1.5205597E2,3.4310205E2,0E0,0E0,0E0,0E0,0E0,0E0,8.9703125E1,2.9016516E2,2.9001868E2,5.1822754E1,0E0,0E0,0E0,0E0,0E0,0E0,0E0,0E0,0E0,0E0],"parents":[2147483647,0,0,2,2,1,1,4,4,5,5,8,8,7,7,10,10,6,6,3,3,18,18,19,19,9,9,17,17,20,20],"right_children":[2,6,4,20,8,10,18,14,12,26,16,-1,-1,-1,-1,-1,-1,28,22,24,30,-1,-1,-1,-1,-1,-1,-1,-1,-1,-1],"split_conditions":[-4.6689272E-1,-3.221096E-1,2.083971E-1,2.00001E0,3.7331367E-1,-4.583175E-1,-2.7371484E-1,-4.2873856E-2,-1.553384E-1,2.00001E0,2.00001E0,-1.9755505E-3,-4.250462E-2,3.6990117E-2,-4.6279314E-3,4.290036E-4,-4.0392198E-2,1.853316E-1,7.619693E-1,4.2895284E-1,-4.1437164E-1,2.0300526E-2,5.1544722E-2,-2.229984E-2,-5.553658E-2,3.8847174E-2,5.6989067E-3,4.390322E-2,6.484348E-2,-6.852907E-2,-5.3101834E-2],"split_indices":[3,5,5,24,3,14,14,14,14,24,24,0,0,0,0,0,0,5,5,3,5,0,0,0,0,0,0,0,0,0,0],"split_type":[0,0,0,0,0,0,0,0,0,0,0,0,0,0,0,0,0,0,0,0,0,0,0,0,0,0,0,0,0,0,0],"sum_hessian":[1.9054756E4,9.289735E3,9.765021E3,5.180976E3,4.584045E3,3.4445928E3,5.845142E3,2.1694324E3,2.4146128E3,1.3855146E3,2.0590781E3,1.3440283E3,1.0705844E3,1.3071444E3,8.622881E2,1.0542754E3,1.00480273E3,2.8692966E3,2.9758455E3,2.6295808E3,2.5513955E3,1.5000797E3,1.4757657E3,1.2940015E3,1.3355795E3,7.176231E2,6.6789154E2,6.8023145E2,2.1890652E3,1.7192428E3,8.321526E2],"tree_param":{"num_deleted":"0","num_feature":"43215","num_nodes":"31","size_leaf_vector":"1"}},{"base_weights":[8.969664E-4,-4.4890726E-1,5.0073856E-1,-1.4550236E-1,-7.686133E-1,7.822148E-1,2.0001525E-1,-5.021496E-1,1.1534556E-1,5.0068E-1,-1.342881E-1,-4.4091392E-1,-9.981413E-1,9.70231E-1,3.759771E-1,1.706312E-2,-1.6375236E-2,-6.2368265E-3,-3.8307864E-2,-3.6744237E-2,-5.777793E-3,7.4155093E-3,-2.1609722E-2,3.759372E-2,1.1462924E-2,-3.2579163E-4,2.8811967E-2,-5.916066E-2,-3.971634E-2,5.351449E-2,3.2954626E-2],"categories":[],"categories_nodes":[],"categories_segments":[],"categories_sizes":[],"default_left":[0,0,0,0,0,0,0,0,0,0,0,0,0,0,0,0,0,0,0,0,0,0,0,0,0,0,0,0,0,0,0],"id":6,"left_children":[1,3,5,7,11,13,9,17,15,23,21,19,27,29,25,-1,-1,-1,-1,-1,-1,-1,-1,-1,-1,-1,-1,-1,-1,-1,-1],"loss_changes":[4.268699E3,9.692455E2,7.610637E2,4.7717676E2,3.6554028E2,3.543999E2,4.3721558E2,2.1579071E2,2.9654742E2,1.5595837E2,1.7350504E2,1.9178357E2,1.0696631E2,9.812573E1,1.1269559E2,0E0,0E0,0E0,0E0,0E0,0E0,0E0,0E0,0E0,0E0,0E0,0E0,0E0,0E0,0E0,0E0],"parents":[2147483647,0,0,1,1,2,2,3,3,6,6,4,4,5,5,8,8,7,7,11,11,10,10,9,9,14,14,12,12,13,13],"right_children":[2,4,6,8,12,14,10,18,16,24,22,20,28,30,26,-1,-1,-1,-1,-1,-1,-1,-1,-1,-1,-1,-1,-1,-1,-1,-1],"split_conditions":[2.083971E-1,2.00001E0,2.00001E0,-8.756818E-1,-4.303307E-1,1.604876E-1,-2.128135E-1,-4.4391683E-1,9.47962E-2,-5.5594098E-2,-5.5594098E-2,-6.9115776E-1,-6.9115776E-1,5.6990206E-1,7.619693E-1,1.706312E-2,-1.6375236E-2,-6.2368265E-3,-3.8307864E-2,-3.6744237E-2,-5.777793E-3,7.4155093E-3,-2.1609722E-2,3.759372E-2,1.1462924E-2,-3.2579163E-4,2.8811967E-2,-5.916066E-2,-3.971634E-2,5.351449E-2,3.2954626E-2],"split_indices":[5,24,24,5,14,14,14,14,14,12,12,5,5,12,5,0,0,0,0,0,0,0,0,0,0,0,0,0,0,0,0],"split_type":[0,0,0,0,0,0,0,0,0,0,0,0,0,0,0,0,0,0,0,0,0,0,0,0,0,0,0,0,0,0,0],"sum_hessian":[1.8984268E4,9.992334E3,8.991935E3,5.127618E3,4.864716E3,4.6437734E3,4.348161E3,2.1656643E3,2.9619536E3,2.2889944E3,2.0591667E3,2.0050325E3,2.8596836E3,3.1735793E3,1.470194E3,1.9615253E3,1.0004284E3,8.9198975E2,1.2736746E3,1.052662E3,9.5237054E2,1.0569915E3,1.0021754E3,1.1878744E3,1.10112E3,5.0556067E2,9.646333E2,1.4962351E3,1.3634485E3,2.3994895E3,7.7408997E2],"tree_param":{"num_deleted":"0","num_feature":"43215","num_nodes":"31","size_leaf_vector":"1"}},{"base_weights":[4.2621205E-3,6.0697347E-1,-4.9448383E-1,-8.707706E-1,8.327552E-2,6.429326E-3,9.2339385E-1,4.0732905E-1,-4.0450737E-1,3.5942098E-1,-3.902076E-1,-1.0830915E0,-5.7688594E-1,-9.886332E-3,-4.560751E-2,3.772355E-2,8.652146E-4,6.809289E-1,1.1258479E0,2.1324086E-3,-3.6712684E-2,4.5248378E-2,1.4690376E-2,-3.858392E-3,-3.6894433E-2,3.2283872E-2,1.5538282E-3,-3.5144463E-2,-5.907001E-2,6.3505106E-2,4.7867667E-2],"categories":[],"categories_nodes":[],"categories_segments":[],"categories_sizes":[],"default_left":[0,0,0,0,0,0,0,0,0,0,0,0,0,0,0,0,0,0,0,0,0,0,0,0,0,0,0,0,0,0,0],"id":7,"left_children":[1,5,3,11,7,9,17,15,19,25,23,27,13,-1,-1,-1,-1,21,29,-1,-1,-1,-1,-1,-1,-1,-1,-1,-1,-1,-1],"loss_changes":[5.698053E3,1.6310115E3,2.2550671E3,3.9132764E2,6.4696387E2,4.149667E2,2.751748E2,3.3293106E2,2.4093655E2,1.4737569E2,1.5184276E2,1.3543457E2,3.3500928E2,0E0,0E0,0E0,0E0,2.2180237E2,7.320703E1,0E0,0E0,0E0,0E0,0E0,0E0,0E0,0E0,0E0,0E0,0E0,0E0],"parents":[2147483647,0,0,2,2,1,1,4,4,5,5,3,3,12,12,7,7,6,6,8,8,17,17,10,10,9,9,11,11,18,18],"right_children":[2,6,4,12,8,10,18,16,20,26,24,28,14,-1,-1,-1,-1,22,30,-1,-1,-1,-1,-1,-1,-1,-1,-1,-1,-1,-1],"split_conditions":[-5.416512E-1,-4.1437164E-1,4.851832E-1,-4.1437164E-1,6.341544E-1,-2.2861132E-1,6.005108E-1,-2.128135E-1,-4.1553146E-1,-1.8130708E-1,1.7299788E-2,-7.9111964E-1,2.598486E-1,-9.886332E-3,-4.560751E-2,3.772355E-2,8.652146E-4,2.3587154E-2,-1.6430405E-1,2.1324086E-3,-3.6712684E-2,4.5248378E-2,1.4690376E-2,-3.858392E-3,-3.6894433E-2,3.2283872E-2,1.5538282E-3,-3.5144463E-2,-5.907001E-2,6.3505106E-2,4.7867667E-2],"split_indices":[4,5,5,5,4,14,5,14,14,13,9,14,4,0,0,0,0,14,14,0,0,0,0,0,0,0,0,0,0,0,0],"split_type":[0,0,0,0,0,0,0,0,0,0,0,0,0,0,0,0,0,0,0,0,0,0,0,0,0,0,0,0,0,0,0],"sum_hessian":[1.8953611E4,8.582201E3,1.0371409E4,6.280499E3,4.0909102E3,2.9618445E3,5.620357E3,2.458077E3,1.6328333E3,1.5671948E3,1.3946495E3,3.6446716E3,2.6358274E3,1.2376854E3,1.3981418E3,1.3000404E3,1.1580366E3,2.5594495E3,3.0609075E3,6.934052E2,9.39428E2,1.6203608E3,9.390887E2,7.3452826E2,6.6012134E2,8.36742E2,7.304528E2,7.504618E2,2.8942097E3,1.6455531E3,1.4153545E3],"tree_param":{"num_deleted":"0","num_feature":"43215","num_nodes":"31","size_leaf_vector":"1"}},{"base_weights":[-5.226228E-4,5.5403006E-1,-4.9521285E-1,-8.3896106E-1,6.847552E-2,8.491135E-2,9.580596E-1,5.482398E-1,-2.0400901E-1,3.800862E-1,-3.6435825E-1,-5.782283E-1,-1.0897654E0,8.191352E-3,-2.9919177E-2,-1.257383E-2,-4.6031598E-2,3.4358144E-2,-4.608E-3,6.1785616E-4,-3.9326787E-2,1.1673839E0,7.3989123E-1,5.0030667E-2,2.3292571E-2,4.2275358E-2,1.1548367E-2,-6.1151654E-2,-4.3633647E-2,6.270348E-2,4.733431E-2],"categories":[],"categories_nodes":[],"categories_segments":[],"categories_sizes":[],"default_left":[0,0,0,0,0,0,0,0,0,0,0,0,0,0,0,0,0,0,0,0,0,0,0,0,0,0,0,0,0,0,0],"id":8,"left_children":[1,5,3,11,9,7,21,25,13,17,19,15,27,-1,-1,-1,-1,-1,-1,-1,-1,29,23,-1,-1,-1,-1,-1,-1,-1,-1],"loss_changes":[5.165353E3,1.6825037E3,1.9283376E3,4.0361914E2,5.0871323E2,5.501457E2,2.1694678E2,1.4866992E2,3.6732785E2,3.1805984E2,2.5111176E2,3.3911078E2,9.006055E1,0E0,0E0,0E0,0E0,0E0,0E0,0E0,0E0,4.5347168E1,1.6658789E2,0E0,0E0,0E0,0E0,0E0,0E0,0E0,0E0],"parents":[2147483647,0,0,2,2,1,1,5,5,4,4,3,3,8,8,11,11,9,9,10,10,6,6,22,22,7,7,12,12,21,21],"right_children":[2,6,4,12,10,8,22,26,14,18,20,16,28,-1,-1,-1,-1,-1,-1,-1,-1,30,24,-1,-1,-1,-1,-1,-1,-1,-1],"split_conditions":[-5.005672E-1,-2.2257986E-2,5.3131425E-1,3.914791E-1,6.1222005E-1,-4.930727E-1,2.00001E0,2.00001E0,2.00001E0,-4.2873856E-2,2.00001E0,2.00001E0,-2.990441E-1,8.191352E-3,-2.9919177E-2,-1.257383E-2,-4.6031598E-2,3.4358144E-2,-4.608E-3,6.1785616E-4,-3.9326787E-2,2.7643928E-1,-2.128135E-1,5.0030667E-2,2.3292571E-2,4.2275358E-2,1.1548367E-2,-6.1151654E-2,-4.3633647E-2,6.270348E-2,4.733431E-2],"split_indices":[4,5,5,3,4,14,24,24,24,14,24,24,5,0,0,0,0,0,0,0,0,14,14,0,0,0,0,0,0,0,0],"split_type":[0,0,0,0,0,0,0,0,0,0,0,0,0,0,0,0,0,0,0,0,0,0,0,0,0,0,0,0,0,0,0],"sum_hessian":[1.8826854E4,8.876307E3,9.950548E3,6.180854E3,3.769694E3,4.107869E3,4.768437E3,1.5773873E3,2.5304822E3,2.1918406E3,1.5778534E3,3.0320654E3,3.1487883E3,1.3095964E3,1.2208856E3,1.5523811E3,1.4796843E3,1.3279138E3,8.639269E2,8.343346E2,7.4351874E2,2.4313232E3,2.3371138E3,1.1962999E3,1.1408138E3,8.135085E2,7.6387885E2,1.9482023E3,1.2005862E3,1.7422997E3,6.890234E2],"tree_param":{"num_deleted":"0","num_feature":"43215","num_nodes":"31","size_leaf_vector":"1"}},{"base_weights":[-7.069992E-3,4.3774608E-1,-5.6914264E-1,7.399957E-1,1.6821948E-1,-2.9224855E-1,-8.639597E-1,5.1681703E-1,-1.1273679E-1,1.3654769E-2,-6.332698E-1,1.0306789E-2,-2.269405E-2,1.426316E-2,-1.9366965E-2,9.557664E-1,5.151996E-1,-5.3990906E-1,-1.0240784E0,4.0006656E-2,1.1172268E-2,3.5339776E-2,3.989777E-3,-1.754028E-2,-4.4782262E-2,-1.3555196E-2,-4.147789E-2,-4.056195E-2,-5.8615264E-2,5.598725E-2,3.918728E-2],"categories":[],"categories_nodes":[],"categories_segments":[],"categories_sizes":[],"default_left":[0,0,0,0,0,0,0,0,0,0,0,0,0,0,0,0,0,0,0,0,0,0,0,0,0,0,0,0,0,0,0],"id":9,"left_children":[1,3,5,15,7,9,17,19,11,13,23,-1,-1,-1,-1,29,21,25,27,-1,-1,-1,-1,-1,-1,-1,-1,-1,-1,-1,-1],"loss_changes":[4.674543E3,8.501221E2,6.740134E2,2.3812866E2,5.405414E2,4.4449722E2,2.0698657E2,2.0453448E2,3.3258643E2,2.4484387E2,1.4900537E2,0E0,0E0,0E0,0E0,6.9895996E1,2.0112018E2,1.0293103E2,8.3471924E1,0E0,0E0,0E0,0E0,0E0,0E0,0E0,0E0,0E0,0E0,0E0,0E0],"parents":[2147483647,0,0,1,1,2,2,4,4,5,5,8,8,9,9,3,3,6,6,7,7,16,16,10,10,17,17,18,18,15,15],"right_children":[2,4,6,16,8,10,18,20,12,14,24,-1,-1,-1,-1,30,22,26,28,-1,-1,-1,-1,-1,-1,-1,-1,-1,-1,-1,-1],"split_conditions":[-2.8468245E-1,-8.462072E-1,2.00001E0,2.00001E0,-3.7024534E-1,-2.128135E-1,-5.6855875E-1,2.00001E0,2.00001E0,8.825809E-1,-6.824532E-2,1.0306789E-2,-2.269405E-2,1.426316E-2,-1.9366965E-2,-5.5594098E-2,1.9278765E-1,-2.1537259E-1,4.1710526E-1,4.0006656E-2,1.1172268E-2,3.5339776E-2,3.989777E-3,-1.754028E-2,-4.4782262E-2,-1.3555196E-2,-4.147789E-2,-4.056195E-2,-5.8615264E-2,5.598725E-2,3.918728E-2],"split_indices":[4,4,24,24,14,14,14,24,24,4,9,0,0,0,0,12,14,13,4,0,0,0,0,0,0,0,0,0,0,0,0],"split_type":[0,0,0,0,0,0,0,0,0,0,0,0,0,0,0,0,0,0,0,0,0,0,0,0,0,0,0,0,0,0,0],"sum_hessian":[1.8694758E4,1.0436046E4,8.258713E3,4.9185703E3,5.517475E3,4.259838E3,3.998875E3,2.4619553E3,3.0555198E3,2.2460464E3,2.0137916E3,1.5795173E3,1.4760026E3,1.3392263E3,9.0681995E2,2.5080063E3,2.4105637E3,1.3239053E3,2.6749697E3,1.2515632E3,1.2103921E3,1.6735215E3,7.370423E2,9.708961E2,1.0428955E3,6.876633E2,6.3624194E2,1.1008008E3,1.5741688E3,1.2811978E3,1.2268086E3],"tree_param":{"num_deleted":"0","num_feature":"43215","num_nodes":"31","size_leaf_vector":"1"}},{"base_weights":[4.4701044E-3,4.8534805E-1,-4.652542E-1,-9.031106E-1,-4.6212137E-2,-8.075836E-2,7.933831E-1,2.6935327E-1,-3.9457744E-1,2.3115103E-1,-4.1198346E-1,2.5011081E-2,-1.2370384E-2,4.9767748E-1,9.629987E-1,-1.8494433E-3,-3.560365E-2,-6.859548E-1,-1.1069188E0,-1.958183E-2,-4.980422E-2,3.9459348E-2,9.321951E-3,5.768901E-5,-3.438453E-2,2.501575E-2,-6.133737E-3,5.7220843E-2,4.05305E-2,-4.830445E-2,-5.998083E-2],"categories":[],"categories_nodes":[],"categories_segments":[],"categories_sizes":[],"default_left":[0,0,0,0,0,0,0,0,0,0,0,0,0,0,0,0,0,0,0,0,0,0,0,0,0,0,0,0,0,0,0],"id":10,"left_children":[1,5,3,17,7,9,13,11,15,25,23,-1,-1,21,27,-1,-1,19,29,-1,-1,-1,-1,-1,-1,-1,-1,-1,-1,-1,-1],"loss_changes":[4.198852E3,1.601815E3,1.7253125E3,2.0276025E2,5.284431E2,3.3458945E2,2.978833E2,3.0104663E2,2.5936273E2,1.5892761E2,1.7889868E2,0E0,0E0,1.9677423E2,1.0355371E2,0E0,0E0,2.0306189E2,2.9786865E1,0E0,0E0,0E0,0E0,0E0,0E0,0E0,0E0,0E0,0E0,0E0,0E0],"parents":[2147483647,0,0,2,2,1,1,4,4,5,5,7,7,6,6,8,8,3,3,17,17,13,13,10,10,9,9,14,14,18,18],"right_children":[2,6,4,18,8,10,14,12,16,26,24,-1,-1,22,28,-1,-1,20,30,-1,-1,-1,-1,-1,-1,-1,-1,-1,-1,-1,-1],"split_conditions":[-4.4671455E-1,-4.1437164E-1,9.306956E-2,4.2895284E-1,2.00001E0,2.00001E0,3.9292118E-1,1.0786512E0,3.7331367E-1,-8.3648366E-1,-9.282235E-1,2.5011081E-2,-1.2370384E-2,2.00001E0,-8.917933E-1,-1.8494433E-3,-3.560365E-2,2.00001E0,-3.4596303E-1,-1.958183E-2,-4.980422E-2,3.9459348E-2,9.321951E-3,5.768901E-5,-3.438453E-2,2.501575E-2,-6.133737E-3,5.7220843E-2,4.05305E-2,-4.830445E-2,-5.998083E-2],"split_indices":[3,5,5,3,24,24,5,3,3,3,3,0,0,24,3,0,0,24,18,0,0,0,0,0,0,0,0,0,0,0,0],"split_type":[0,0,0,0,0,0,0,0,0,0,0,0,0,0,0,0,0,0,0,0,0,0,0,0,0,0,0,0,0,0,0],"sum_hessian":[1.8586857E4,9.18437E3,9.402487E3,4.5974565E3,4.8050312E3,3.236702E3,5.947668E3,2.5213252E3,2.283706E3,1.6671117E3,1.5695902E3,1.7427606E3,7.785645E2,2.1694353E3,3.778233E3,1.0745638E3,1.2091422E3,2.2279556E3,2.3695007E3,1.1442786E3,1.083677E3,1.1194293E3,1.050006E3,6.2862067E2,9.409696E2,9.4659753E2,7.2051416E2,1.7218579E3,2.0563748E3,9.450963E2,1.4244045E3],"tree_param":{"num_deleted":"0","num_feature":"43215","num_nodes":"31","size_leaf_vector":"1"}},{"base_weights":[1.005715E-3,3.9689714E-1,-5.413279E-1,-2.2998993E-1,6.7313164E-1,-8.337664E-1,1.9181913E-2,4.4164628E-1,9.3926775E-1,2.1809885E-2,-7.1523046E-1,3.4368083E-2,2.7574857E-3,2.4926572E-1,-4.8620543E-1,2.0157011E-2,-1.5768318E-2,-1.0466912E0,-5.9766424E-1,-1.1754396E-2,-4.3573406E-2,2.1312667E-2,-1.2189842E-2,5.5561144E-2,3.6794122E-2,-2.286165E-2,-5.4168124E-2,-8.105985E-3,-4.2048927E-2,-3.9865166E-2,-5.602624E-2],"categories":[],"categories_nodes":[],"categories_segments":[],"categories_sizes":[],"default_left":[0,0,0,0,0,0,0,0,0,0,0,0,0,0,0,0,0,0,0,0,0,0,0,0,0,0,0,0,0,0,0],"id":11,"left_children":[1,3,5,9,7,17,13,11,23,15,25,-1,-1,21,27,-1,-1,29,19,-1,-1,-1,-1,-1,-1,-1,-1,-1,-1,-1,-1],"loss_changes":[3.984762E3,1.8579015E3,1.283666E3,4.01032E2,4.5836523E2,2.580869E2,3.12448E2,3.7837463E2,1.2030469E2,2.7807843E2,1.06003296E2,0E0,0E0,1.612271E2,9.651433E1,0E0,0E0,4.8906982E1,2.4228778E2,0E0,0E0,0E0,0E0,0E0,0E0,0E0,0E0,0E0,0E0,0E0,0E0],"parents":[2147483647,0,0,1,1,2,2,4,4,3,3,7,7,6,6,9,9,5,5,18,18,13,13,8,8,10,10,14,14,17,17],"right_children":[2,4,6,10,8,18,14,12,24,16,26,-1,-1,22,28,-1,-1,30,20,-1,-1,-1,-1,-1,-1,-1,-1,-1,-1,-1,-1],"split_conditions":[-2.2232231E-1,-5.758302E-1,6.697073E-1,9.47962E-2,6.927728E-1,-4.1437164E-1,1.604876E-1,-3.442854E-2,-1.6430405E-1,-8.5221E-1,-7.451314E-1,3.4368083E-2,2.7574857E-3,1.3771156E0,-5.5594098E-2,2.0157011E-2,-1.5768318E-2,-7.4832785E-1,-4.085833E-1,-1.1754396E-2,-4.3573406E-2,2.1312667E-2,-1.2189842E-2,5.5561144E-2,3.6794122E-2,-2.286165E-2,-5.4168124E-2,-8.105985E-3,-4.2048927E-2,-3.9865166E-2,-5.602624E-2],"split_indices":[3,5,5,14,5,5,14,14,14,3,3,0,0,3,12,0,0,14,14,0,0,0,0,0,0,0,0,0,0,0,0],"split_type":[0,0,0,0,0,0,0,0,0,0,0,0,0,0,0,0,0,0,0,0,0,0,0,0,0,0,0,0,0,0,0],"sum_hessian":[1.8557223E4,1.0727012E4,7.8302104E3,3.2810835E3,7.445928E3,5.145255E3,2.6849556E3,3.983626E3,3.462302E3,2.1607747E3,1.1203088E3,2.4348748E3,1.5487513E3,1.845346E3,8.396096E2,1.0139029E3,1.1468717E3,2.7036133E3,2.4416416E3,1.0513208E3,1.3903208E3,1.3580144E3,4.873315E2,1.873695E3,1.588607E3,6.600024E2,4.603065E2,4.395432E2,4.0006644E2,6.2028284E2,2.0833306E3],"tree_param":{"num_deleted":"0","num_feature":"43215","num_nodes":"31","size_leaf_vector":"1"}},{"base_weights":[-2.8231698E-3,4.9546963E-1,-3.993322E-1,-7.6532084E-1,5.9814636E-2,-1.3361807E-1,7.352333E-1,3.4262463E-1,-3.746304E-1,3.312707E-2,-1.0827776E-3,4.6840814E-1,9.352674E-1,-5.5072284E-1,-9.977464E-1,-1.0764365E-2,-4.090277E-2,2.6132858E-1,-4.217195E-1,3.7798014E-2,8.357446E-3,6.8571614E-3,-3.0569479E-2,-4.342455E-3,-3.923134E-2,2.7670866E-2,-7.229836E-3,5.5294674E-2,3.8105674E-2,-3.6215734E-2,-5.4253537E-2],"categories":[],"categories_nodes":[],"categories_segments":[],"categories_sizes":[],"default_left":[0,0,0,0,0,0,0,0,0,0,0,0,0,0,0,0,0,0,0,0,0,0,0,0,0,0,0,0,0,0,0],"id":12,"left_children":[1,5,3,13,7,17,11,9,21,-1,-1,19,27,15,29,-1,-1,25,23,-1,-1,-1,-1,-1,-1,-1,-1,-1,-1,-1,-1],"loss_changes":[3.6319858E3,1.228746E3,1.7202628E3,2.8357275E2,5.5811615E2,2.5597942E2,3.1436646E2,3.2064963E2,2.1711244E2,0E0,0E0,2.1896692E2,9.8720215E1,2.6561304E2,6.4479004E1,0E0,0E0,1.1261094E2,1.5799167E2,0E0,0E0,0E0,0E0,0E0,0E0,0E0,0E0,0E0,0E0,0E0,0E0],"parents":[2147483647,0,0,2,2,1,1,4,4,7,7,6,6,3,3,13,13,5,5,11,11,8,8,18,18,17,17,12,12,14,14],"right_children":[2,6,4,14,8,18,12,10,22,-1,-1,20,28,16,30,-1,-1,26,24,-1,-1,-1,-1,-1,-1,-1,-1,-1,-1,-1,-1],"split_conditions":[-5.58039E-1,-6.9115776E-1,3.2372466E-1,2.00001E0,6.341544E-1,-4.230927E-1,3.6985567E-1,-2.128135E-1,-6.036415E-1,3.312707E-2,-1.0827776E-3,-2.2861132E-1,2.00001E0,1.6363813E-1,-7.1634537E-1,-1.0764365E-2,-4.090277E-2,1.8839002E-1,2.00001E0,3.7798014E-2,8.357446E-3,6.8571614E-3,-3.0569479E-2,-4.342455E-3,-3.923134E-2,2.7670866E-2,-7.229836E-3,5.5294674E-2,3.8105674E-2,-3.6215734E-2,-5.4253537E-2],"split_indices":[4,5,5,24,4,14,5,14,14,0,0,14,24,4,13,0,0,9,24,0,0,0,0,0,0,0,0,0,0,0,0],"split_type":[0,0,0,0,0,0,0,0,0,0,0,0,0,0,0,0,0,0,0,0,0,0,0,0,0,0,0,0,0,0,0],"sum_hessian":[1.8380578E4,8.1447827E3,1.0235796E4,5.69534E3,4.540456E3,2.2477136E3,5.897069E3,2.7503054E3,1.7901506E3,1.4638818E3,1.2864236E3,2.5281353E3,3.3689336E3,2.9629888E3,2.7323513E3,1.3149103E3,1.6480786E3,9.480976E2,1.299616E3,1.2927219E3,1.2354133E3,5.663536E2,1.223797E3,6.765621E2,6.2305396E2,5.511484E2,3.9694925E2,1.6941399E3,1.6747938E3,6.636405E2,2.0687107E3],"tree_param":{"num_deleted":"0","num_feature":"43215","num_nodes":"31","size_leaf_vector":"1"}},{"base_weights":[-3.7812379E-3,4.7916228E-1,-3.7306806E-1,-6.4127886E-1,1.9749703E-1,7.059358E-2,8.154704E-1,-3.4850433E-1,-8.63499E-1,4.2643878E-1,-2.9576516E-1,2.8336656E-1,-4.003197E-1,-3.5594657E-2,-1.8770335E-3,2.8954286E-2,-9.835734E-4,3.1789843E-2,-1.5584738E-3,1.0121891E0,6.1775756E-1,-3.2659426E-2,-5.2011497E-2,-3.040852E-3,-3.850722E-2,2.3484996E-3,-3.3960845E-2,4.4256277E-2,1.9415563E-2,5.624755E-2,4.1009154E-2],"categories":[],"categories_nodes":[],"categories_segments":[],"categories_sizes":[],"default_left":[0,0,0,0,0,0,0,0,0,0,0,0,0,0,0,0,0,0,0,0,0,0,0,0,0,0,0,0,0,0,0],"id":13,"left_children":[1,5,3,7,9,11,19,13,21,17,25,15,23,-1,-1,-1,-1,-1,-1,29,27,-1,-1,-1,-1,-1,-1,-1,-1,-1,-1],"loss_changes":[3.2710898E3,1.0919904E3,1.5906969E3,4.5970337E2,3.7553485E2,3.597651E2,1.6892212E2,3.4491492E2,1.4869458E2,2.1758102E2,1.3860512E2,2.2162082E2,1.4026181E2,0E0,0E0,0E0,0E0,0E0,0E0,4.635327E1,1.3318896E2,0E0,0E0,0E0,0E0,0E0,0E0,0E0,0E0,0E0,0E0],"parents":[2147483647,0,0,2,2,1,1,3,3,4,4,5,5,7,7,11,11,9,9,6,6,8,8,12,12,10,10,20,20,19,19],"right_children":[2,6,4,8,10,12,20,14,22,18,26,16,24,-1,-1,-1,-1,-1,-1,30,28,-1,-1,-1,-1,-1,-1,-1,-1,-1,-1],"split_conditions":[-5.7512116E-1,-9.145451E-2,7.389038E-1,-4.085833E-1,8.825809E-1,1.7160842E-1,2.00001E0,-5.066337E-1,-1.5379043E-1,1.604876E-1,2.00001E0,4.1970043E-4,2.00001E0,-3.5594657E-2,-1.8770335E-3,2.8954286E-2,-9.835734E-4,3.1789843E-2,-1.5584738E-3,4.6226335E-1,-9.114203E-1,-3.2659426E-2,-5.2011497E-2,-3.040852E-3,-3.850722E-2,2.3484996E-3,-3.3960845E-2,4.4256277E-2,1.9415563E-2,5.624755E-2,4.1009154E-2],"split_indices":[4,5,5,14,4,14,24,5,9,14,24,18,24,0,0,0,0,0,0,18,4,0,0,0,0,0,0,0,0,0,0],"split_type":[0,0,0,0,0,0,0,0,0,0,0,0,0,0,0,0,0,0,0,0,0,0,0,0,0,0,0,0,0,0,0],"sum_hessian":[1.833939E4,7.9466606E3,1.03927295E4,7.069419E3,3.3233105E3,3.5884233E3,4.3582373E3,3.0515618E3,4.0178572E3,2.2698994E3,1.0534111E3,2.471929E3,1.1164945E3,1.40657E3,1.6449918E3,1.2506111E3,1.2213177E3,1.5571199E3,7.1277954E2,2.1825454E3,2.1756921E3,1.8367792E3,2.1810781E3,5.8271814E2,5.337764E2,5.567008E2,4.967104E2,1.00349146E3,1.1722006E3,1.3719589E3,8.105866E2],"tree_param":{"num_deleted":"0","num_feature":"43215","num_nodes":"31","size_leaf_vector":"1"}},{"base_weights":[3.5475618E-3,3.318301E-1,-5.079608E-1,-3.0890424E-2,7.185394E-1,-7.5588804E-1,9.146102E-3,3.2216054E-1,-3.5558966E-1,1.4706934E-3,-3.362646E-2,8.550679E-1,3.8587353E-1,4.7911096E-1,-2.1375921E-1,2.812745E-2,-5.4158614E-4,-4.076988E-1,-8.80542E-1,4.573493E-3,-2.7185744E-2,-3.266345E-2,3.1011004E-3,3.269982E-2,2.4128638E-3,5.1598735E-2,3.4218393E-2,-3.387929E-2,-5.0962783E-2,2.95848E-2,-1.4275922E-2],"categories":[],"categories_nodes":[],"categories_segments":[],"categories_sizes":[],"default_left":[0,0,0,0,0,0,0,0,0,0,0,0,0,0,0,0,0,0,0,0,0,0,0,0,0,0,0,0,0,0,0],"id":14,"left_children":[1,3,5,7,11,17,13,15,9,-1,-1,25,23,29,19,-1,-1,21,27,-1,-1,-1,-1,-1,-1,-1,-1,-1,-1,-1,-1],"loss_changes":[3.0499043E3,1.5517792E3,9.1027026E2,6.5461847E2,2.4285889E2,2.0793896E2,2.412474E2,2.190021E2,3.629907E2,0E0,0E0,1.1391138E2,1.4117241E2,6.3947327E1,1.5736821E2,0E0,0E0,1.46193E2,9.877588E1,0E0,0E0,0E0,0E0,0E0,0E0,0E0,0E0,0E0,0E0,0E0,0E0],"parents":[2147483647,0,0,1,1,2,2,3,3,8,8,4,4,6,6,7,7,5,5,14,14,17,17,12,12,11,11,18,18,13,13],"right_children":[2,4,6,8,12,18,14,16,10,-1,-1,26,24,30,20,-1,-1,22,28,-1,-1,-1,-1,-1,-1,-1,-1,-1,-1,-1,-1],"split_conditions":[-1.268777E-1,1.3920058E-1,7.389038E-1,-8.153046E-1,2.6364306E-1,-6.9331515E-1,-5.962093E-1,2.8907198E-1,-3.7024534E-1,1.4706934E-3,-3.362646E-2,-7.872395E-1,-7.322544E-1,1.3446836E0,1.7299788E-2,2.812745E-2,-5.4158614E-4,-4.5323495E-2,-3.4596303E-1,4.573493E-3,-2.7185744E-2,-3.266345E-2,3.1011004E-3,3.269982E-2,2.4128638E-3,5.1598735E-2,3.4218393E-2,-3.387929E-2,-5.0962783E-2,2.95848E-2,-1.4275922E-2],"split_indices":[4,5,5,4,14,14,14,18,14,0,0,4,4,15,9,0,0,5,18,0,0,0,0,0,0,0,0,0,0,0,0],"split_type":[0,0,0,0,0,0,0,0,0,0,0,0,0,0,0,0,0,0,0,0,0,0,0,0,0,0,0,0,0,0,0],"sum_hessian":[1.8160918E4,1.106185E4,7.0990684E3,5.708441E3,5.3534087E3,4.7981367E3,2.3009316E3,2.7348262E3,2.9736147E3,1.3430486E3,1.6305663E3,3.794534E3,1.5588746E3,7.398698E2,1.5610619E3,1.5878567E3,1.1469694E3,1.2660414E3,3.532095E3,8.112911E2,7.497708E2,8.311337E2,4.3490768E2,8.68336E2,6.905387E2,1.8609124E3,1.9336216E3,1.4363749E3,2.0957202E3,6.4510925E2,9.476059E1],"tree_param":{"num_deleted":"0","num_feature":"43215","num_nodes":"31","size_leaf_vector":"1"}},{"base_weights":[3.3220465E-3,3.1458768E-1,-4.7899115E-1,5.734871E-1,8.814283E-2,3.7462866E-1,-2.1452932E-1,-1.320606E-1,-6.427254E-1,4.6978793E-3,-2.5500957E-2,7.8323066E-1,3.5333163E-1,2.8715357E-2,4.2708937E-4,-3.9061242E-1,-8.150781E-1,1.464493E-1,-4.2589298E-1,3.254262E-2,7.759446E-3,-7.842233E-3,-3.1753678E-2,4.6316877E-2,2.5812468E-2,-5.081462E-3,-3.4877162E-2,2.1448899E-2,-7.027077E-3,-3.159242E-2,-4.9287535E-2],"categories":[],"categories_nodes":[],"categories_segments":[],"categories_sizes":[],"default_left":[0,0,0,0,0,0,0,0,0,0,0,0,0,0,0,0,0,0,0,0,0,0,0,0,0,0,0,0,0,0,0],"id":15,"left_children":[1,3,7,11,5,13,9,17,15,-1,-1,23,19,-1,-1,21,29,27,25,-1,-1,-1,-1,-1,-1,-1,-1,-1,-1,-1,-1],"loss_changes":[2.7064363E3,6.4229663E2,4.0157715E2,2.357666E2,5.0697873E2,2.1955551E2,2.592229E2,1.8569907E2,2.0840686E2,0E0,0E0,9.950818E1,1.4703134E2,0E0,0E0,1.1147342E2,8.857092E1,9.4548E1,9.718535E1,0E0,0E0,0E0,0E0,0E0,0E0,0E0,0E0,0E0,0E0,0E0,0E0],"parents":[2147483647,0,0,1,1,4,4,2,2,6,6,3,3,5,5,8,8,7,7,12,12,15,15,11,11,18,18,17,17,16,16],"right_children":[2,4,8,12,6,14,10,18,16,-1,-1,24,20,-1,-1,22,30,28,26,-1,-1,-1,-1,-1,-1,-1,-1,-1,-1,-1,-1],"split_conditions":[-1.268777E-1,-8.153046E-1,-6.036415E-1,-5.5594098E-2,4.1970043E-4,5.371172E-2,-2.8225726E-1,-5.5594098E-2,-3.4596303E-1,4.6978793E-3,-2.5500957E-2,3.5948023E-1,-4.4391683E-1,2.8715357E-2,4.2708937E-4,-5.5594098E-2,-6.824532E-2,4.1970043E-4,-1.5379043E-1,3.254262E-2,7.759446E-3,-7.842233E-3,-3.1753678E-2,4.6316877E-2,2.5812468E-2,-5.081462E-3,-3.4877162E-2,2.1448899E-2,-7.027077E-3,-3.159242E-2,-4.9287535E-2],"split_indices":[4,4,14,12,18,14,14,12,18,0,0,9,14,0,0,12,9,18,9,0,0,0,0,0,0,0,0,0,0,0,0],"split_type":[0,0,0,0,0,0,0,0,0,0,0,0,0,0,0,0,0,0,0,0,0,0,0,0,0,0,0,0,0,0,0],"sum_hessian":[1.802558E4,1.0955613E4,7.0699663E3,5.1107954E3,5.844818E3,3.002576E3,2.842242E3,2.2674202E3,4.8025464E3,1.3908733E3,1.4513687E3,2.6159778E3,2.4948174E3,1.9424933E3,1.0600826E3,1.9513818E3,2.8511646E3,1.1643187E3,1.1031014E3,9.963961E2,1.4984213E3,9.983468E2,9.5303503E2,1.7014825E3,9.144953E2,5.0348053E2,5.996209E2,5.8647125E2,5.778475E2,1.3772677E3,1.4738969E3],"tree_param":{"num_deleted":"0","num_feature":"43215","num_nodes":"31","size_leaf_vector":"1"}},{"base_weights":[-5.8723595E-3,-3.9847094E-1,3.056142E-1,5.6488764E-1,3.1384293E-2,-1.4938968E-1,-6.618798E-1,2.9676545E-1,-2.4713159E-1,1.3270453E-1,-3.848981E-1,6.929685E-1,2.1093911E-1,-2.319876E-2,5.7453266E-3,-4.487213E-1,-8.8109136E-1,2.3770556E-2,-4.443209E-3,-3.6061134E-3,-3.014998E-2,4.4398632E-2,2.4445895E-2,1.6858732E-2,-1.1439884E-2,-6.3316524E-3,-3.1601038E-2,2.4357151E-2,-3.6697162E-3,-2.6764233E-2,-4.840304E-2],"categories":[],"categories_nodes":[],"categories_segments":[],"categories_sizes":[],"default_left":[0,0,0,0,0,0,0,0,0,0,0,0,0,0,0,0,0,0,0,0,0,0,0,0,0,0,0,0,0,0,0],"id":16,"left_children":[1,5,3,11,7,9,15,17,13,23,19,21,27,-1,-1,25,29,-1,-1,-1,-1,-1,-1,-1,-1,-1,-1,-1,-1,-1,-1],"loss_changes":[2.1905583E3,5.1983984E2,7.101546E2,2.3260266E2,3.5893454E2,2.7073584E2,1.7956189E2,1.7135196E2,1.8607379E2,1.3716153E2,1.5145306E2,1.4955566E2,1.0728378E2,0E0,0E0,1.1531848E2,5.6552612E1,0E0,0E0,0E0,0E0,0E0,0E0,0E0,0E0,0E0,0E0,0E0,0E0,0E0,0E0],"parents":[2147483647,0,0,2,2,1,1,4,4,5,5,3,3,8,8,6,6,7,7,10,10,11,11,9,9,15,15,12,12,16,16],"right_children":[2,6,4,12,8,10,16,18,14,24,20,22,28,-1,-1,26,30,-1,-1,-1,-1,-1,-1,-1,-1,-1,-1,-1,-1,-1,-1],"split_conditions":[-9.145451E-2,2.00001E0,2.00001E0,3.273474E-1,-5.5594098E-2,-1.5379043E-1,-5.5594098E-2,1.604876E-1,1.061821E0,4.3567777E-2,-4.4391683E-1,-5.5594098E-2,-2.5472768E-2,-2.319876E-2,5.7453266E-3,-4.5319834E-1,-7.982881E-1,2.3770556E-2,-4.443209E-3,-3.6061134E-3,-3.014998E-2,4.4398632E-2,2.4445895E-2,1.6858732E-2,-1.1439884E-2,-6.3316524E-3,-3.1601038E-2,2.4357151E-2,-3.6697162E-3,-2.6764233E-2,-4.840304E-2],"split_indices":[5,24,24,14,12,9,12,14,5,14,14,12,9,0,0,9,14,0,0,0,0,0,0,0,0,0,0,0,0,0,0],"split_type":[0,0,0,0,0,0,0,0,0,0,0,0,0,0,0,0,0,0,0,0,0,0,0,0,0,0,0,0,0,0,0],"sum_hessian":[1.7910941E4,7.923659E3,9.987283E3,5.1330903E3,4.8541924E3,4.0733953E3,3.850264E3,2.4856753E3,2.368517E3,1.8535872E3,2.2198079E3,3.768465E3,1.3646255E3,1.4811171E3,8.874001E2,1.9536279E3,1.896636E3,1.6985686E3,7.871068E2,9.125152E2,1.3072927E3,1.9252334E3,1.8432316E3,1.1839806E3,6.696066E2,7.09176E2,1.2444519E3,6.918466E2,6.7277893E2,3.8258044E2,1.5140555E3],"tree_param":{"num_deleted":"0","num_feature":"43215","num_nodes":"31","size_leaf_vector":"1"}},{"base_weights":[5.1206915E-4,4.2351332E-1,-3.3256367E-1,-6.9885206E-1,8.539122E-3,-1.2646018E-1,6.418618E-1,3.0357873E-1,-3.1608275E-1,2.5809858E-2,-7.32257E-3,8.4984297E-1,4.3131018E-1,-8.0621586E-4,-3.1941306E-2,1.7129408E-1,-4.722379E-1,-5.363224E-1,-9.666123E-1,-1.0887277E-2,-3.871835E-2,8.498418E-3,3.555075E-2,2.34465E-2,-8.181418E-3,-5.4392084E-3,-3.7672594E-2,4.7377653E-2,2.8997917E-2,-3.2332804E-2,-4.994754E-2],"categories":[],"categories_nodes":[],"categories_segments":[],"categories_sizes":[],"default_left":[0,0,0,0,0,0,0,0,0,0,0,0,0,0,0,0,0,0,0,0,0,0,0,0,0,0,0,0,0,0,0],"id":17,"left_children":[1,5,3,17,7,15,11,9,13,-1,-1,27,21,-1,-1,23,25,19,29,-1,-1,-1,-1,-1,-1,-1,-1,-1,-1,-1,-1],"loss_changes":[2.5181797E3,9.456018E2,1.2493618E3,2.0931909E2,4.9609647E2,2.3054485E2,2.4644897E2,2.5971545E2,2.387459E2,0E0,0E0,7.419507E1,2.047633E2,0E0,0E0,1.2004584E2,1.05802795E2,2.2754388E2,1.8185669E1,0E0,0E0,0E0,0E0,0E0,0E0,0E0,0E0,0E0,0E0,0E0,0E0],"parents":[2147483647,0,0,2,2,1,1,4,4,7,7,6,6,8,8,5,5,3,3,17,17,12,12,15,15,16,16,11,11,18,18],"right_children":[2,6,4,18,8,16,12,10,14,-1,-1,28,22,-1,-1,24,26,20,30,-1,-1,-1,-1,-1,-1,-1,-1,-1,-1,-1,-1],"split_conditions":[-5.58039E-1,-6.9115776E-1,9.306956E-2,6.757841E-1,2.00001E0,-1.8130708E-1,2.00001E0,9.064033E-1,3.4649345E-1,2.5809858E-2,-7.32257E-3,3.5512838E-1,6.005108E-1,-8.0621586E-4,-3.1941306E-2,-5.5594098E-2,-1.9656299E-1,-4.230927E-1,-1.3851112E0,-1.0887277E-2,-3.871835E-2,8.498418E-3,3.555075E-2,2.34465E-2,-8.181418E-3,-5.4392084E-3,-3.7672594E-2,4.7377653E-2,2.8997917E-2,-3.2332804E-2,-4.994754E-2],"split_indices":[4,5,5,4,24,13,24,4,4,0,0,14,5,0,0,12,9,14,18,0,0,0,0,0,0,0,0,0,0,0,0],"split_type":[0,0,0,0,0,0,0,0,0,0,0,0,0,0,0,0,0,0,0,0,0,0,0,0,0,0,0,0,0,0,0],"sum_hessian":[1.787119E4,7.872702E3,9.998486E3,4.820747E3,5.1777393E3,2.2374531E3,5.635249E3,2.7124946E3,2.4652446E3,1.8420597E3,8.704349E2,2.8334019E3,2.8018474E3,1.2782688E3,1.1869758E3,1.2024825E3,1.0349707E3,3.0017168E3,1.8190303E3,1.2845322E3,1.7171846E3,1.4493018E3,1.3525457E3,6.364699E2,5.660126E2,4.5207507E2,5.828956E2,2.0784138E3,7.5498785E2,1.6890346E2,1.6501268E3],"tree_param":{"num_deleted":"0","num_feature":"43215","num_nodes":"31","size_leaf_vector":"1"}},{"base_weights":[4.8931735E-3,4.2660484E-1,-3.1342545E-1,-5.038433E-1,3.2715082E-1,1.1532271E-1,7.772284E-1,-7.8957474E-1,-2.8969237E-1,-3.2765584E-3,-3.3377897E-2,4.6996143E-1,-1.01218626E-1,5.9927374E-1,-6.610588E-4,6.9733607E-3,-2.201213E-2,1.3533863E-2,-2.3852592E-2,1.7456865E-3,3.2622386E-2,9.289324E-1,5.795964E-1,-2.975573E-2,-4.657197E-2,3.5806447E-2,5.8364327E-4,3.5938453E-2,9.513144E-3,4.9290285E-2,3.1411577E-2],"categories":[],"categories_nodes":[],"categories_segments":[],"categories_sizes":[],"default_left":[0,0,0,0,0,0,0,0,0,0,0,0,0,0,0,0,0,0,0,0,0,0,0,0,0,0,0,0,0,0,0],"id":18,"left_children":[1,5,3,7,13,11,21,23,9,-1,-1,19,15,25,17,-1,-1,-1,-1,-1,-1,29,27,-1,-1,-1,-1,-1,-1,-1,-1],"loss_changes":[2.3840833E3,8.3369006E2,1.2346583E3,4.7717224E2,2.0693033E2,3.1089984E2,1.0716968E2,9.163623E1,3.778302E2,0E0,0E0,1.21823425E2,2.0520749E2,8.70249E1,1.3626767E2,0E0,0E0,0E0,0E0,0E0,0E0,3.4109863E1,8.453955E1,0E0,0E0,0E0,0E0,0E0,0E0,0E0,0E0],"parents":[2147483647,0,0,2,2,1,1,3,3,8,8,5,5,4,4,12,12,14,14,11,11,6,6,7,7,13,13,22,22,21,21],"right_children":[2,6,4,8,14,12,22,24,10,-1,-1,20,16,26,18,-1,-1,-1,-1,-1,-1,30,28,-1,-1,-1,-1,-1,-1,-1,-1],"split_conditions":[-5.851074E-1,1.3920058E-1,1.0387554E0,-4.3743715E-1,4.1710526E-1,-4.930727E-1,-1.0421135E-1,-2.882326E-1,6.555294E-1,-3.2765584E-3,-3.3377897E-2,-1.152468E0,2.8907198E-1,7.881134E-1,4.6226335E-1,6.9733607E-3,-2.201213E-2,1.3533863E-2,-2.3852592E-2,1.7456865E-3,3.2622386E-2,8.314183E-1,3.5512838E-1,-2.975573E-2,-4.657197E-2,3.5806447E-2,5.8364327E-4,3.5938453E-2,9.513144E-3,4.9290285E-2,3.1411577E-2],"split_indices":[3,5,5,5,4,14,13,18,4,0,0,5,18,14,18,0,0,0,0,0,0,14,14,0,0,0,0,0,0,0,0],"split_type":[0,0,0,0,0,0,0,0,0,0,0,0,0,0,0,0,0,0,0,0,0,0,0,0,0,0,0,0,0,0,0],"sum_hessian":[1.7758037E4,7.638344E3,1.0119693E4,7.8009844E3,2.318709E3,4.0468748E3,3.5914692E3,3.3408115E3,4.460173E3,2.80019E3,1.659983E3,1.533776E3,2.5130989E3,1.266519E3,1.0521898E3,1.4700464E3,1.0430525E3,6.7064294E2,3.8154688E2,4.5359518E2,1.0801808E3,2.0297306E3,1.5617386E3,1.4113741E3,1.9294374E3,1.0562463E3,2.1027272E2,1.1498593E3,4.1187936E2,1.7049797E3,3.2475092E2],"tree_param":{"num_deleted":"0","num_feature":"43215","num_nodes":"31","size_leaf_vector":"1"}},{"base_weights":[-4.385014E-3,2.7581173E-1,-4.4218495E-1,5.459768E-1,6.3132495E-2,3.253665E-1,-2.0492947E-1,-2.0697471E-1,-7.0354414E-1,1.9737238E-1,-3.9118305E-1,1.1938031E-2,-2.0353174E-2,7.069099E-1,2.6031643E-1,2.9809361E-2,5.7344693E-3,-5.837697E-3,-3.0847354E-2,2.9126087E-2,8.1104116E-4,-4.5508844E-1,-8.650929E-1,4.8051402E-2,2.7515445E-2,2.4130318E-2,-5.4986994E-3,-1.0845537E-2,-3.6191702E-2,-3.0600233E-2,-4.9003385E-2],"categories":[],"categories_nodes":[],"categories_segments":[],"categories_sizes":[],"default_left":[0,0,0,0,0,0,0,0,0,0,0,0,0,0,0,0,0,0,0,0,0,0,0,0,0,0,0,0,0,0,0],"id":19,"left_children":[1,3,7,13,5,15,11,9,21,25,17,-1,-1,23,19,-1,-1,-1,-1,-1,-1,27,29,-1,-1,-1,-1,-1,-1,-1,-1],"loss_changes":[2.1591787E3,6.166426E2,4.2211853E2,2.1713855E2,4.222796E2,1.731838E2,2.6652948E2,2.6946735E2,1.3018237E2,9.934734E1,1.538953E2,0E0,0E0,1.1977893E2,1.3409346E2,0E0,0E0,0E0,0E0,0E0,0E0,8.202606E1,5.6732666E1,0E0,0E0,0E0,0E0,0E0,0E0,0E0,0E0],"parents":[2147483647,0,0,1,1,4,4,2,2,7,7,6,6,3,3,5,5,10,10,14,14,8,8,13,13,9,9,21,21,22,22],"right_children":[2,4,8,14,6,16,12,10,22,26,18,-1,-1,24,20,-1,-1,-1,-1,-1,-1,28,30,-1,-1,-1,-1,-1,-1,-1,-1],"split_conditions":[-1.268777E-1,-1.9656299E-1,2.00001E0,4.6226335E-1,2.00001E0,-3.7024534E-1,-9.20125E-1,-6.1758417E-1,-4.036935E-1,1.7299788E-2,-1.5379043E-1,1.1938031E-2,-2.0353174E-2,-4.7239965E-1,-8.462072E-1,2.9809361E-2,5.7344693E-3,-5.837697E-3,-3.0847354E-2,2.9126087E-2,8.1104116E-4,1.7299788E-2,-5.9328586E-1,4.8051402E-2,2.7515445E-2,2.4130318E-2,-5.4986994E-3,-1.0845537E-2,-3.6191702E-2,-3.0600233E-2,-4.9003385E-2],"split_indices":[4,9,24,18,24,14,4,14,18,9,9,0,0,13,4,0,0,0,0,0,0,9,13,0,0,0,0,0,0,0,0],"split_type":[0,0,0,0,0,0,0,0,0,0,0,0,0,0,0,0,0,0,0,0,0,0,0,0,0,0,0,0,0,0,0],"sum_hessian":[1.759951E4,1.07315625E4,6.867947E3,4.726259E3,6.0053037E3,3.035543E3,2.9697607E3,3.6157468E3,3.2522002E3,1.1316478E3,2.4840989E3,9.2943744E2,2.0403234E3,3.022175E3,1.7040835E3,1.3273868E3,1.7081561E3,1.121892E3,1.3622069E3,7.339223E2,9.701612E2,1.2829261E3,1.9692739E3,1.1503512E3,1.871824E3,5.8664215E2,5.4500574E2,6.8110187E2,6.018243E2,6.17133E2,1.352141E3],"tree_param":{"num_deleted":"0","num_feature":"43215","num_nodes":"31","size_leaf_vector":"1"}},{"base_weights":[-1.4888E-3,4.2585203E-1,-2.681597E-1,-5.746238E-1,9.397725E-2,6.1081834E-3,6.791561E-1,3.577833E-1,-2.3484176E-1,-3.6371076E-1,-8.072783E-1,-5.6047915E-3,-3.4479633E-2,3.218859E-2,2.6547483E-3,2.0005573E-1,-4.182931E-1,2.589021E-3,-2.802153E-2,2.5186855E-2,-3.4781152E-3,8.6416537E-1,4.9739063E-1,3.4573786E-2,9.234819E-3,-2.626112E-2,-4.524189E-2,-9.94557E-3,-4.263933E-2,4.65275E-2,3.0306166E-2],"categories":[],"categories_nodes":[],"categories_segments":[],"categories_sizes":[],"default_left":[0,0,0,0,0,0,0,0,0,0,0,0,0,0,0,0,0,0,0,0,0,0,0,0,0,0,0,0,0,0,0],"id":20,"left_children":[1,5,3,9,7,15,21,13,17,11,25,-1,-1,-1,-1,19,27,-1,-1,-1,-1,29,23,-1,-1,-1,-1,-1,-1,-1,-1],"loss_changes":[1.9960088E3,7.155586E2,1.1969939E3,2.8635583E2,4.2897772E2,2.086535E2,1.4071472E2,2.3905063E2,2.0548138E2,2.5130933E2,7.593579E1,0E0,0E0,0E0,0E0,1.424874E2,7.561859E1,0E0,0E0,0E0,0E0,3.5043823E1,1.2850385E2,0E0,0E0,0E0,0E0,0E0,0E0,0E0,0E0],"parents":[2147483647,0,0,2,2,1,1,4,4,3,3,9,9,7,7,5,5,8,8,15,15,6,6,22,22,10,10,16,16,21,21],"right_children":[2,6,4,10,8,16,22,14,18,12,26,-1,-1,-1,-1,20,28,-1,-1,-1,-1,30,24,-1,-1,-1,-1,-1,-1,-1,-1],"split_conditions":[-6.655277E-1,-3.9130613E-1,3.0065915E-1,2.00001E0,3.649202E-1,1.7160842E-1,2.00001E0,-5.5594098E-2,2.00001E0,3.2932222E-1,-8.6553717E-1,-5.6047915E-3,-3.4479633E-2,3.218859E-2,2.6547483E-3,-1.1504121E-1,4.022528E-1,2.589021E-3,-2.802153E-2,2.5186855E-2,-3.4781152E-3,1.039568E0,2.3587154E-2,3.4573786E-2,9.234819E-3,-2.626112E-2,-4.524189E-2,-9.94557E-3,-4.263933E-2,4.65275E-2,3.0306166E-2],"split_indices":[4,5,5,24,4,14,24,12,24,4,18,0,0,0,0,18,9,0,0,0,0,18,14,0,0,0,0,0,0,0,0],"split_type":[0,0,0,0,0,0,0,0,0,0,0,0,0,0,0,0,0,0,0,0,0,0,0,0,0,0,0,0,0,0,0],"sum_hessian":[1.751309E4,6.7290967E3,1.0783993E4,5.840657E3,4.9433364E3,2.5329062E3,4.196191E3,2.7427695E3,2.2005667E3,3.0648123E3,2.775845E3,1.7302343E3,1.334578E3,1.4142266E3,1.3285431E3,1.738813E3,7.940932E2,1.1707626E3,1.0298041E3,8.173412E2,9.214718E2,2.0776792E3,2.1185115E3,1.306422E3,8.120895E2,7.1502075E2,2.0608242E3,5.286356E2,2.6545758E2,1.6504685E3,4.2721066E2],"tree_param":{"num_deleted":"0","num_feature":"43215","num_nodes":"31","size_leaf_vector":"1"}},{"base_weights":[-9.6385373E-4,2.576523E-1,-4.0659288E-1,-2.5853541E-1,4.614214E-1,-6.3281685E-1,4.1486427E-2,6.847649E-1,2.3799048E-1,2.5220333E-2,-1.4052282E-3,1.572339E-1,-4.563376E-1,3.3761457E-1,-2.8129026E-1,-4.5665053E-1,-8.494753E-1,-1.0181992E-2,-3.7246265E-2,-1.5938635E-3,-3.1959187E-2,4.3453343E-2,2.4182033E-2,3.095213E-2,8.364333E-4,5.8702356E-3,-2.5942773E-2,1.7979534E-2,-1.7051153E-2,-3.779659E-2,-5.060764E-2],"categories":[],"categories_nodes":[],"categories_segments":[],"categories_sizes":[],"default_left":[0,0,0,0,0,0,0,0,0,0,0,0,0,0,0,0,0,0,0,0,0,0,0,0,0,0,0,0,0,0,0],"id":21,"left_children":[1,3,5,11,7,15,13,21,9,-1,-1,27,19,23,25,17,29,-1,-1,-1,-1,-1,-1,-1,-1,-1,-1,-1,-1,-1,-1],"loss_changes":[1.8195724E3,1.1142374E3,6.845764E2,2.4667201E2,3.788236E2,1.7089575E2,2.1674406E2,1.4034485E2,2.6926978E2,0E0,0E0,9.766225E1,1.5769528E2,1.06781525E2,1.0283244E2,1.8053198E2,2.984253E1,0E0,0E0,0E0,0E0,0E0,0E0,0E0,0E0,0E0,0E0,0E0,0E0,0E0,0E0],"parents":[2147483647,0,0,1,1,2,2,4,4,8,8,3,3,6,6,5,5,15,15,12,12,7,7,13,13,14,14,11,11,16,16],"right_children":[2,4,6,12,8,16,14,22,10,-1,-1,28,20,24,26,18,30,-1,-1,-1,-1,-1,-1,-1,-1,-1,-1,-1,-1,-1,-1],"split_conditions":[-1.268777E-1,-6.9115776E-1,7.389038E-1,-9.249717E-1,4.1970043E-4,-1.8056566E-1,1.7299788E-2,1.7299788E-2,2.00001E0,2.5220333E-2,-1.4052282E-3,2.0483747E-1,-5.81516E-1,2.00001E0,-5.142881E-1,2.00001E0,4.6226335E-1,-1.0181992E-2,-3.7246265E-2,-1.5938635E-3,-3.1959187E-2,4.3453343E-2,2.4182033E-2,3.095213E-2,8.364333E-4,5.8702356E-3,-2.5942773E-2,1.7979534E-2,-1.7051153E-2,-3.779659E-2,-5.060764E-2],"split_indices":[4,5,5,4,18,14,9,9,24,0,0,14,9,24,14,24,18,0,0,0,0,0,0,0,0,0,0,0,0,0,0],"split_type":[0,0,0,0,0,0,0,0,0,0,0,0,0,0,0,0,0,0,0,0,0,0,0,0,0,0,0,0,0,0,0],"sum_hessian":[1.7343414E4,1.0591179E4,6.7522344E3,2.9975408E3,7.593638E3,4.486634E3,2.2656006E3,3.796529E3,3.797109E3,1.896962E3,1.9001467E3,9.664085E2,2.0311323E3,1.181552E3,1.0840487E3,2.4762708E3,2.0103629E3,1.319707E3,1.1565636E3,6.1188116E2,1.4192512E3,1.9793837E3,1.8171455E3,6.2898303E2,5.52569E2,4.0494815E2,6.791005E2,6.874807E2,2.789278E2,1.2799866E3,7.303764E2],"tree_param":{"num_deleted":"0","num_feature":"43215","num_nodes":"31","size_leaf_vector":"1"}},{"base_weights":[3.2819237E-3,3.607337E-1,-2.723399E-1,-4.5814237E-1,2.664378E-1,-2.1258992E-1,5.19612E-1,-2.0920436E-1,-6.767406E-1,-2.9598406E-2,1.4138033E-3,7.3165345E-1,3.134108E-1,2.6937544E-2,-2.6999397E-4,5.4969496E-1,1.9522378E-2,9.762515E-2,-5.1579833E-1,-2.4991333E-2,-4.3541994E-2,1.2889315E-2,-1.637651E-2,4.5004915E-2,2.7934004E-2,3.251371E-2,-8.050534E-3,1.3682042E-2,-2.2916853E-2,-9.1568725E-3,-3.989185E-2],"categories":[],"categories_nodes":[],"categories_segments":[],"categories_sizes":[],"default_left":[0,0,0,0,0,0,0,0,0,0,0,0,0,0,0,0,0,0,0,0,0,0,0,0,0,0,0,0,0,0,0],"id":22,"left_children":[1,5,3,7,15,17,11,9,19,-1,-1,23,13,-1,-1,25,21,27,29,-1,-1,-1,-1,-1,-1,-1,-1,-1,-1,-1,-1],"loss_changes":[1.7000328E3,6.844157E2,9.754504E2,3.9410962E2,1.7477008E2,1.5344577E2,2.569807E2,3.080592E2,1.3201306E2,0E0,0E0,8.3979004E1,2.1438788E2,0E0,0E0,8.329645E1,1.10573425E2,7.9091125E1,7.724747E1,0E0,0E0,0E0,0E0,0E0,0E0,0E0,0E0,0E0,0E0,0E0,0E0],"parents":[2147483647,0,0,2,2,1,1,3,3,7,7,6,6,12,12,4,4,5,5,8,8,16,16,11,11,15,15,17,17,18,18],"right_children":[2,6,4,8,16,18,12,10,20,-1,-1,24,14,-1,-1,26,22,28,30,-1,-1,-1,-1,-1,-1,-1,-1,-1,-1,-1,-1],"split_conditions":[-5.672354E-1,-9.4487834E-1,9.695589E-1,-3.0983987E-1,-3.2464284E-1,-2.700325E-1,2.00001E0,-5.758302E-1,2.00001E0,-2.9598406E-2,1.4138033E-3,-5.5594098E-2,1.8839002E-1,2.6937544E-2,-2.6999397E-4,1.2242321E0,1.8839002E-1,5.6990206E-1,-1.5379043E-1,-2.4991333E-2,-4.3541994E-2,1.2889315E-2,-1.637651E-2,4.5004915E-2,2.7934004E-2,3.251371E-2,-8.050534E-3,1.3682042E-2,-2.2916853E-2,-9.1568725E-3,-3.989185E-2],"split_indices":[4,5,5,13,13,13,24,5,24,0,0,12,9,0,0,15,9,12,9,0,0,0,0,0,0,0,0,0,0,0,0],"split_type":[0,0,0,0,0,0,0,0,0,0,0,0,0,0,0,0,0,0,0,0,0,0,0,0,0,0,0,0,0,0,0],"sum_hessian":[1.7253451E4,7.5115166E3,9.741935E3,7.243944E3,2.497991E3,1.6298282E3,5.8816885E3,3.3878467E3,3.856097E3,1.2965745E3,2.0912722E3,2.8985225E3,2.9831658E3,1.7473927E3,1.2357731E3,1.1628096E3,1.3351814E3,8.0594116E2,8.2388715E2,2.0192263E3,1.8368706E3,7.918236E2,5.4335785E2,1.4663544E3,1.4321682E3,1.0187244E3,1.4408517E2,6.125255E2,1.9341562E2,3.787756E2,4.4511154E2],"tree_param":{"num_deleted":"0","num_feature":"43215","num_nodes":"31","size_leaf_vector":"1"}},{"base_weights":[-3.6952186E-3,3.8545117E-1,-2.378448E-1,-5.58449E-1,5.3267833E-2,6.1394885E-4,6.185648E-1,2.720057E-1,-3.07775E-1,2.6600858E-2,-7.3106907E-4,-3.5775504E-1,-7.829227E-1,2.876875E-1,-2.9691485E-1,-8.955873E-3,-3.8686752E-2,-1.6205264E-3,-3.0866567E-2,4.6939334E-1,8.360182E-1,3.1423263E-2,6.8810335E-3,2.8595717E-3,-2.7408144E-2,2.109625E-2,-1.2980118E-2,-2.9596752E-2,-4.4663318E-2,4.3984704E-2,2.2680286E-2],"categories":[],"categories_nodes":[],"categories_segments":[],"categories_sizes":[],"default_left":[0,0,0,0,0,0,0,0,0,0,0,0,0,0,0,0,0,0,0,0,0,0,0,0,0,0,0,0,0,0,0],"id":23,"left_children":[1,5,3,11,7,13,19,9,17,-1,-1,15,27,25,23,-1,-1,-1,-1,21,29,-1,-1,-1,-1,-1,-1,-1,-1,-1,-1],"loss_changes":[1.5711027E3,5.81088E2,1.00475366E3,2.3051904E2,4.4572787E2,2.0887616E2,1.3045728E2,2.619321E2,1.8149355E2,0E0,0E0,2.009932E2,5.0417114E1,9.1547356E1,1.0687187E2,0E0,0E0,0E0,0E0,1.2630353E2,2.6992554E1,0E0,0E0,0E0,0E0,0E0,0E0,0E0,0E0,0E0,0E0],"parents":[2147483647,0,0,2,2,1,1,4,4,7,7,3,3,5,5,11,11,8,8,6,6,19,19,14,14,13,13,12,12,20,20],"right_children":[2,6,4,12,8,14,20,10,18,-1,-1,16,28,26,24,-1,-1,-1,-1,22,30,-1,-1,-1,-1,-1,-1,-1,-1,-1,-1],"split_conditions":[-6.7883533E-1,-4.1437164E-1,9.306956E-2,2.00001E0,4.045329E-1,2.00001E0,8.5423136E-1,1.7299788E-2,2.00001E0,2.6600858E-2,-7.3106907E-4,7.436829E-1,-4.1042578E-1,2.1524075E-1,-2.821081E-1,-8.955873E-3,-3.8686752E-2,-1.6205264E-3,-3.0866567E-2,6.354547E-1,1.772193E0,3.1423263E-2,6.8810335E-3,2.8595717E-3,-2.7408144E-2,2.109625E-2,-1.2980118E-2,-2.9596752E-2,-4.4663318E-2,4.3984704E-2,2.2680286E-2],"split_indices":[4,5,5,24,18,24,5,9,24,0,0,4,9,15,9,0,0,0,0,18,15,0,0,0,0,0,0,0,0,0,0],"split_type":[0,0,0,0,0,0,0,0,0,0,0,0,0,0,0,0,0,0,0,0,0,0,0,0,0,0,0,0,0,0,0],"sum_hessian":[1.7240412E4,6.476352E3,1.0764061E4,5.1221196E3,5.6419414E3,2.4434944E3,4.0328574E3,3.5135205E3,2.1284207E3,1.8418473E3,1.6716732E3,2.7056704E3,2.4164492E3,1.2436141E3,1.1998802E3,1.893822E3,8.118484E2,1.127004E3,1.0014166E3,2.3938518E3,1.6390056E3,1.6174529E3,7.763989E2,4.9832236E2,7.0155786E2,9.988489E2,2.447653E2,8.872031E2,1.5292462E3,1.4698336E3,1.6917204E2],"tree_param":{"num_deleted":"0","num_feature":"43215","num_nodes":"31","size_leaf_vector":"1"}},{"base_weights":[-4.020884E-4,2.2153473E-1,-3.9095703E-1,-2.0908315E-1,4.1510507E-1,-5.6495315E-1,8.656091E-2,6.347585E-1,1.9746742E-1,2.0395301E-2,-6.770078E-3,5.4268382E-2,-4.940803E-1,-3.6521992E-1,-7.7314746E-1,-5.6808568E-3,-3.7142824E-2,-3.4669735E-2,-8.418862E-3,1.6448574E-2,-1.2334145E-2,3.570998E-1,-2.2217739E-1,4.0875148E-2,2.2355681E-2,4.000574E-3,-2.812515E-2,3.7366237E-2,6.3604205E-3,-2.6573613E-2,-4.4979833E-2],"categories":[],"categories_nodes":[],"categories_segments":[],"categories_sizes":[],"default_left":[0,0,0,0,0,0,0,0,0,0,0,0,0,0,0,0,0,0,0,0,0,0,0,0,0,0,0,0,0,0,0],"id":24,"left_children":[1,3,5,11,7,13,21,23,9,-1,-1,19,15,17,29,-1,-1,-1,-1,-1,-1,27,25,-1,-1,-1,-1,-1,-1,-1,-1],"loss_changes":[1.4808066E3,9.0811584E2,5.143828E2,2.5362956E2,3.5915747E2,1.8839233E2,1.3823848E2,1.2788428E2,2.6459906E2,0E0,0E0,1.4534041E2,1.535203E2,1.4959647E2,6.738513E1,0E0,0E0,0E0,0E0,0E0,0E0,7.902564E1,7.955507E1,0E0,0E0,0E0,0E0,0E0,0E0,0E0,0E0],"parents":[2147483647,0,0,1,1,2,2,4,4,8,8,3,3,5,5,12,12,13,13,11,11,6,6,7,7,22,22,21,21,14,14],"right_children":[2,4,6,12,8,14,22,24,10,-1,-1,20,16,18,30,-1,-1,-1,-1,-1,-1,28,26,-1,-1,-1,-1,-1,-1,-1,-1],"split_conditions":[-2.7207501E-2,-5.988957E-1,9.695589E-1,-5.5594098E-2,2.00001E0,4.1970043E-4,-5.5594098E-2,-5.5594098E-2,2.7393514E-1,2.0395301E-2,-6.770078E-3,2.00001E0,-3.2488066E-1,-5.988957E-1,-5.446694E-1,-5.6808568E-3,-3.7142824E-2,-3.4669735E-2,-8.418862E-3,1.6448574E-2,-1.2334145E-2,-5.011516E-1,2.00001E0,4.0875148E-2,2.2355681E-2,4.000574E-3,-2.812515E-2,3.7366237E-2,6.3604205E-3,-2.6573613E-2,-4.4979833E-2],"split_indices":[3,5,5,12,24,18,12,12,9,0,0,24,9,5,13,0,0,0,0,0,0,13,24,0,0,0,0,0,0,0,0],"split_type":[0,0,0,0,0,0,0,0,0,0,0,0,0,0,0,0,0,0,0,0,0,0,0,0,0,0,0,0,0,0,0],"sum_hessian":[1.7081895E4,1.0892534E4,6.1893604E3,3.3779172E3,7.5146167E3,4.5362695E3,1.6530911E3,3.7390352E3,3.7755818E3,2.3130525E3,1.4625292E3,1.7560497E3,1.6218677E3,2.3165852E3,2.219684E3,6.417977E2,9.8006995E2,8.6760223E2,1.448983E3,9.1801154E2,8.3803815E2,8.809671E2,7.721239E2,1.8925513E3,1.8464839E3,4.09382E2,3.6274194E2,3.2576035E2,5.552067E2,7.6423926E2,1.4554448E3],"tree_param":{"num_deleted":"0","num_feature":"43215","num_nodes":"31","size_leaf_vector":"1"}},{"base_weights":[9.935925E-3,3.9285544E-1,-1.9031337E-1,-3.9223635E-1,1.973938E-1,1.4263922E-1,6.9516915E-1,-1.280049E-1,-5.9183335E-1,4.4894397E-1,-7.5900435E-2,6.492287E-3,-2.0868555E-2,3.8529715E-1,-1.4563614E-1,-1.8429093E-2,-4.0112846E-2,1.0176271E-2,-1.7324643E-2,2.8417084E-2,-5.268033E-3,7.3763826E-3,-2.2420544E-2,3.5206713E-2,9.32202E-3,8.292834E-1,5.225572E-1,3.364149E-2,1.1261736E-2,4.3536782E-2,2.2203982E-2],"categories":[],"categories_nodes":[],"categories_segments":[],"categories_sizes":[],"default_left":[0,0,0,0,0,0,0,0,0,0,0,0,0,0,0,0,0,0,0,0,0,0,0,0,0,0,0,0,0,0,0],"id":25,"left_children":[1,5,3,7,9,13,25,11,15,19,17,-1,-1,23,21,-1,-1,-1,-1,-1,-1,-1,-1,-1,-1,29,27,-1,-1,-1,-1],"loss_changes":[1.2994375E3,4.400769E2,8.712035E2,3.858236E2,2.620504E2,2.2286298E2,6.0564697E1,2.3508455E2,1.9550867E2,1.3141568E2,1.3825296E2,0E0,0E0,1.0953476E2,1.2934502E2,0E0,0E0,0E0,0E0,0E0,0E0,0E0,0E0,0E0,0E0,2.3263306E1,5.1444885E1,0E0,0E0,0E0,0E0],"parents":[2147483647,0,0,2,2,1,1,3,3,4,4,7,7,5,5,8,8,10,10,9,9,14,14,13,13,6,6,26,26,25,25],"right_children":[2,6,4,8,10,14,26,12,16,20,18,-1,-1,24,22,-1,-1,-1,-1,-1,-1,-1,-1,-1,-1,30,28,-1,-1,-1,-1],"split_conditions":[-7.3267215E-1,1.3920058E-1,6.927728E-1,-2.882326E-1,2.00001E0,-1.4817534E-1,-1.0421135E-1,2.00001E0,-2.700325E-1,1.4373593E0,-5.7310756E-2,6.492287E-3,-2.0868555E-2,-4.036935E-1,4.1970043E-4,-1.8429093E-2,-4.0112846E-2,1.0176271E-2,-1.7324643E-2,2.8417084E-2,-5.268033E-3,7.3763826E-3,-2.2420544E-2,3.5206713E-2,9.32202E-3,1.772193E0,5.777243E-1,3.364149E-2,1.1261736E-2,4.3536782E-2,2.2203982E-2],"split_indices":[3,5,5,18,24,13,13,24,13,3,18,0,0,18,18,0,0,0,0,0,0,0,0,0,0,15,18,0,0,0,0],"split_type":[0,0,0,0,0,0,0,0,0,0,0,0,0,0,0,0,0,0,0,0,0,0,0,0,0,0,0,0,0,0,0],"sum_hessian":[1.6944402E4,5.8180615E3,1.1126341E4,7.3160396E3,3.8103013E3,3.1841257E3,2.6339358E3,3.148981E3,4.1670586E3,1.9837456E3,1.8265558E3,1.6654607E3,1.4835201E3,1.7286691E3,1.4554567E3,2.0232346E3,2.143824E3,8.9873236E2,9.278234E2,1.6321531E3,3.5159247E2,7.397252E2,7.1573145E2,6.63041E2,1.065628E3,1.4801218E3,1.153814E3,7.656012E2,3.882128E2,1.3351809E3,1.449409E2],"tree_param":{"num_deleted":"0","num_feature":"43215","num_nodes":"31","size_leaf_vector":"1"}},{"base_weights":[2.5143828E-3,3.6930454E-1,-1.8990895E-1,1.4614087E-1,-3.4878728E-1,-1.1942572E-1,-5.7467556E-1,6.006164E-1,1.7292097E-1,6.138441E-3,-1.9309958E-2,4.275396E-1,-9.4027445E-2,4.0997028E-1,-6.737889E-2,-2.0661829E-2,-4.2538423E-2,3.0531755E-2,-1.6379461E-3,7.822404E-3,-1.7999595E-2,1.0682086E-2,-1.7059779E-2,7.0986074E-1,2.5759804E-1,3.0838856E-2,9.544394E-3,3.3900328E-2,1.8935949E-3,4.1369066E-2,2.498787E-2],"categories":[],"categories_nodes":[],"categories_segments":[],"categories_sizes":[],"default_left":[0,0,0,0,0,0,0,0,0,0,0,0,0,0,0,0,0,0,0,0,0,0,0,0,0,0,0,0,0,0,0],"id":26,"left_children":[1,7,3,11,5,9,15,23,13,-1,-1,17,19,25,21,-1,-1,-1,-1,-1,-1,-1,-1,29,27,-1,-1,-1,-1,-1,-1],"loss_changes":[1.1933595E3,2.6418512E2,5.9216406E2,2.4068835E2,3.9007922E2,2.4154477E2,1.6873889E2,9.990851E1,1.7934613E2,0E0,0E0,1.3822229E2,1.2809193E2,7.1688385E1,1.2043009E2,0E0,0E0,0E0,0E0,0E0,0E0,0E0,0E0,4.9593628E1,5.9718754E1,0E0,0E0,0E0,0E0,0E0,0E0],"parents":[2147483647,0,0,2,2,4,4,1,1,5,5,3,3,8,8,6,6,11,11,12,12,14,14,7,7,13,13,24,24,23,23],"right_children":[2,8,4,12,6,10,16,24,14,-1,-1,18,20,26,22,-1,-1,-1,-1,-1,-1,-1,-1,30,28,-1,-1,-1,-1,-1,-1],"split_conditions":[-7.3267215E-1,-3.1117016E-1,-6.036415E-1,-1.5379043E-1,-2.5379443E-1,-5.5594098E-2,4.045329E-1,5.6990206E-1,4.1970043E-4,6.138441E-3,-1.9309958E-2,8.556961E-1,-5.5594098E-2,-5.5594098E-2,-2.766324E-1,-2.0661829E-2,-4.2538423E-2,3.0531755E-2,-1.6379461E-3,7.822404E-3,-1.7999595E-2,1.0682086E-2,-1.7059779E-2,1.1732608E-1,-5.5135334E-1,3.0838856E-2,9.544394E-3,3.3900328E-2,1.8935949E-3,4.1369066E-2,2.498787E-2],"split_indices":[3,14,14,9,13,12,18,12,18,0,0,3,12,12,13,0,0,0,0,0,0,0,0,13,13,0,0,0,0,0,0],"split_type":[0,0,0,0,0,0,0,0,0,0,0,0,0,0,0,0,0,0,0,0,0,0,0,0,0,0,0,0,0,0,0],"sum_hessian":[1.690615E4,5.8170283E3,1.1089121E4,3.5597766E3,7.529344E3,3.7367085E3,3.7926357E3,2.6700415E3,3.1469868E3,1.9588632E3,1.7778453E3,1.6388271E3,1.9209496E3,1.5838529E3,1.563134E3,2.3948179E3,1.3978179E3,1.1722201E3,4.6660706E2,9.894931E2,9.314564E2,7.715277E2,7.916063E2,2.02428E3,6.4576154E2,8.138186E2,7.700343E2,2.2094168E2,4.2481982E2,1.2962751E3,7.2800494E2],"tree_param":{"num_deleted":"0","num_feature":"43215","num_nodes":"31","size_leaf_vector":"1"}},{"base_weights":[-2.030111E-3,-2.9798335E-1,2.3160252E-1,4.482128E-1,-1.7656383E-1,1.6215211E-1,-4.8214686E-1,7.013852E-1,2.4989979E-1,8.6853914E-2,-4.9207067E-1,2.5274975E-2,-6.193734E-4,-2.5218746E-1,-6.6884214E-1,-1.3200028E-3,-2.9486278E-2,1.9385418E-2,-1.208046E-2,5.024617E-1,-5.5651803E-2,1.3320613E-2,-1.7611222E-2,-1.0896862E-2,-3.779027E-2,-2.0754151E-2,-3.992849E-2,2.9404536E-2,4.6843078E-2,3.209465E-2,1.9664983E-3],"categories":[],"categories_nodes":[],"categories_segments":[],"categories_sizes":[],"default_left":[0,0,0,0,0,0,0,0,0,0,0,0,0,0,0,0,0,0,0,0,0,0,0,0,0,0,0,0,0,0,0],"id":27,"left_children":[1,5,3,7,9,19,13,27,11,17,23,-1,-1,15,25,-1,-1,-1,-1,29,21,-1,-1,-1,-1,-1,-1,-1,-1,-1,-1],"loss_changes":[1.1661061E3,6.30553E2,8.333469E2,3.0897412E2,2.7166907E2,1.5771182E2,2.2796082E2,7.158887E1,2.3158904E2,1.7619196E2,1.0736142E2,0E0,0E0,1.8156506E2,9.619299E1,0E0,0E0,0E0,0E0,5.3592392E1,1.2408013E2,0E0,0E0,0E0,0E0,0E0,0E0,0E0,0E0,0E0,0E0],"parents":[2147483647,0,0,2,2,1,1,3,3,4,4,8,8,6,6,13,13,9,9,5,5,20,20,10,10,14,14,7,7,19,19],"right_children":[2,6,4,8,10,20,14,28,12,18,24,-1,-1,16,26,-1,-1,-1,-1,30,22,-1,-1,-1,-1,-1,-1,-1,-1,-1,-1],"split_conditions":[-9.145451E-2,-8.462072E-1,1.1527469E-1,-3.4197593E-1,-2.2007905E-1,-4.583175E-1,-2.3050213E-1,1.1310174E0,-5.5594098E-2,-5.5594098E-2,-6.824532E-2,2.5274975E-2,-6.193734E-4,-8.7671556E-2,-5.582356E-1,-1.3200028E-3,-2.9486278E-2,1.9385418E-2,-1.208046E-2,5.6990206E-1,-2.9374504E-1,1.3320613E-2,-1.7611222E-2,-1.0896862E-2,-3.779027E-2,-2.0754151E-2,-3.992849E-2,2.9404536E-2,4.6843078E-2,3.209465E-2,1.9664983E-3],"split_indices":[5,4,4,14,14,14,18,5,12,12,9,0,0,14,13,0,0,0,0,12,13,0,0,0,0,0,0,0,0,0,0],"split_type":[0,0,0,0,0,0,0,0,0,0,0,0,0,0,0,0,0,0,0,0,0,0,0,0,0,0,0,0,0,0,0],"sum_hessian":[1.6862812E4,7.4390938E3,9.423719E3,6.156448E3,3.267271E3,2.1263914E3,5.3127026E3,2.7030789E3,3.4533691E3,1.7810178E3,1.486253E3,1.748512E3,1.7048572E3,2.3815771E3,2.9311255E3,1.4276594E3,9.539177E2,9.2948206E2,8.515357E2,8.2931464E2,1.2970767E3,6.218635E2,6.752131E2,7.29655E2,7.56598E2,9.929751E2,1.9381503E3,1.8273741E3,8.7570483E2,6.37117E2,1.9219763E2],"tree_param":{"num_deleted":"0","num_feature":"43215","num_nodes":"31","size_leaf_vector":"1"}},{"base_weights":[4.835046E-3,2.3907976E-1,-2.83498E-1,1.2530284E-2,5.636813E-1,-4.574749E-1,1.9670524E-1,2.6348576E-1,-2.5563118E-1,-2.5858054E-1,-6.8813515E-1,-2.8645212E-2,-1.5162335E-3,3.164569E-4,-2.664269E-2,2.4594212E-2,1.2515273E-3,4.1115165E-1,-1.5339592E-1,7.4072737E-1,3.8636658E-1,2.8776262E-2,4.584254E-3,3.3674736E-2,5.6691784E-3,-2.2062069E-2,-4.1054297E-2,1.3409627E-2,-1.8367473E-2,3.0775223E-2,4.6505857E-2],"categories":[],"categories_nodes":[],"categories_segments":[],"categories_sizes":[],"default_left":[0,0,0,0,0,0,0,0,0,0,0,0,0,0,0,0,0,0,0,0,0,0,0,0,0,0,0,0,0,0,0],"id":28,"left_children":[1,3,5,7,19,9,17,15,13,11,25,-1,-1,-1,-1,-1,-1,23,27,29,21,-1,-1,-1,-1,-1,-1,-1,-1,-1,-1],"loss_changes":[1.1273618E3,6.772535E2,6.251693E2,3.6515488E2,1.18553955E2,2.5180164E2,1.4950677E2,1.526428E2,1.9049838E2,2.1170134E2,8.309656E1,0E0,0E0,0E0,0E0,0E0,0E0,9.6373505E1,6.836538E1,4.432495E1,1.0549072E2,0E0,0E0,0E0,0E0,0E0,0E0,0E0,0E0,0E0,0E0],"parents":[2147483647,0,0,1,1,2,2,3,3,5,5,9,9,8,8,7,7,6,6,4,4,20,20,17,17,10,10,18,18,19,19],"right_children":[2,4,6,8,20,10,18,16,14,12,26,-1,-1,-1,-1,-1,-1,24,28,30,22,-1,-1,-1,-1,-1,-1,-1,-1,-1,-1],"split_conditions":[-3.066912E-1,3.0065915E-1,9.695589E-1,-5.5594098E-2,-2.314261E-1,2.00001E0,4.045329E-1,2.00001E0,2.00001E0,-4.3743715E-1,-5.7688487E-1,-2.8645212E-2,-1.5162335E-3,3.164569E-4,-2.664269E-2,2.4594212E-2,1.2515273E-3,2.00001E0,-5.582356E-1,1.1771485E0,2.7393514E-1,2.8776262E-2,4.584254E-3,3.3674736E-2,5.6691784E-3,-2.2062069E-2,-4.1054297E-2,1.3409627E-2,-1.8367473E-2,3.0775223E-2,4.6505857E-2],"split_indices":[4,5,5,12,13,24,18,24,24,5,18,0,0,0,0,0,0,24,13,5,9,0,0,0,0,0,0,0,0,0,0],"split_type":[0,0,0,0,0,0,0,0,0,0,0,0,0,0,0,0,0,0,0,0,0,0,0,0,0,0,0,0,0,0,0],"sum_hessian":[1.668964E4,9.208628E3,7.481013E3,5.4240522E3,3.7845754E3,5.4914985E3,1.9895145E3,2.8019243E3,2.622128E3,2.9499385E3,2.54156E3,1.2403639E3,1.7095746E3,1.3486777E3,1.2734501E3,1.4305983E3,1.371326E3,1.2336787E3,7.558359E2,1.8921322E3,1.8924432E3,1.1520067E3,7.4043646E2,6.551814E2,5.784973E2,8.9109247E2,1.6504675E3,2.543648E2,5.0147104E2,1.1415792E3,7.505531E2],"tree_param":{"num_deleted":"0","num_feature":"43215","num_nodes":"31","size_leaf_vector":"1"}},{"base_weights":[2.1611042E-3,1.687166E-1,-3.8284257E-1,-2.5785694E-1,3.3899635E-1,5.168785E-1,5.3597618E-2,-5.4570585E-1,4.836876E-2,2.0913806E-2,-6.815329E-3,3.0556465E-2,-4.704633E-1,3.6574837E-2,1.7157352E-2,-3.8690197E-1,-7.5276256E-1,-4.759433E-3,-3.176145E-2,2.1540084E-1,-4.5055476E-1,1.2519478E-2,-1.641783E-2,-8.56652E-3,-3.1671863E-2,2.4549477E-2,-4.8897914E-3,-3.3525273E-3,-3.5582867E-2,-2.1449033E-2,-3.9996613E-2],"categories":[],"categories_nodes":[],"categories_segments":[],"categories_sizes":[],"default_left":[0,0,0,0,0,0,0,0,0,0,0,0,0,0,0,0,0,0,0,0,0,0,0,0,0,0,0,0,0,0,0],"id":29,"left_children":[1,3,7,11,5,13,9,15,19,-1,-1,21,17,-1,-1,23,29,-1,-1,25,27,-1,-1,-1,-1,-1,-1,-1,-1,-1,-1],"loss_changes":[1.066878E3,8.436557E2,3.528612E2,2.0321497E2,4.213744E2,1.9040698E2,2.2085596E2,1.1962195E2,1.14955666E2,0E0,0E0,1.11108765E2,1.17896545E2,0E0,0E0,1.096893E2,2.3816345E1,0E0,0E0,8.9230896E1,3.4599762E1,0E0,0E0,0E0,0E0,0E0,0E0,0E0,0E0,0E0,0E0],"parents":[2147483647,0,0,1,1,4,4,2,2,6,6,3,3,5,5,7,7,12,12,8,8,11,11,15,15,19,19,20,20,16,16],"right_children":[2,4,8,12,6,14,10,16,20,-1,-1,22,18,-1,-1,24,30,-1,-1,26,28,-1,-1,-1,-1,-1,-1,-1,-1,-1,-1],"split_conditions":[1.9281104E-1,-6.9115776E-1,9.695589E-1,-4.303307E-1,2.3587154E-2,-1.5379043E-1,-8.6655396E-1,-1.7193337E-1,3.273474E-1,2.0913806E-2,-6.815329E-3,4.045329E-1,-6.2428856E-1,3.6574837E-2,1.7157352E-2,2.00001E0,-1.2231044E0,-4.759433E-3,-3.176145E-2,-5.5594098E-2,-3.2488066E-1,1.2519478E-2,-1.641783E-2,-8.56652E-3,-3.1671863E-2,2.4549477E-2,-4.8897914E-3,-3.3525273E-3,-3.5582867E-2,-2.1449033E-2,-3.9996613E-2],"split_indices":[4,5,5,14,14,9,4,14,14,0,0,18,9,0,0,24,9,0,0,12,9,0,0,0,0,0,0,0,0,0,0],"split_type":[0,0,0,0,0,0,0,0,0,0,0,0,0,0,0,0,0,0,0,0,0,0,0,0,0,0,0,0,0,0,0],"sum_hessian":[1.6635602E4,1.1612506E4,5.023096E3,3.3128528E3,8.299653E3,5.1124043E3,3.1872495E3,3.6458406E3,1.3772554E3,1.0909891E3,2.0962603E3,1.4061635E3,1.9066893E3,2.2856406E3,2.8267637E3,2.064966E3,1.5808748E3,5.822101E2,1.3244792E3,1.0322439E3,3.4501144E2,8.722286E2,5.339349E2,1.1025693E3,9.623966E2,5.487867E2,4.8345724E2,1.4025842E2,2.0475304E2,2.0230537E2,1.3785693E3],"tree_param":{"num_deleted":"0","num_feature":"43215","num_nodes":"31","size_leaf_vector":"1"}},{"base_weights":[4.9773874E-3,1.6024028E-1,-3.7448567E-1,-3.821988E-1,2.8917423E-1,5.432165E-1,1.0638208E-1,-5.190308E-1,7.2901905E-2,-3.5232268E-3,2.069737E-2,1.2426623E-1,-5.083812E-1,3.6273487E-2,1.803077E-2,-3.7684494E-1,-7.571261E-1,-3.4111902E-2,-1.0381473E-2,-4.061955E-2,-1.573931E-2,3.2461762E-1,-2.0368335E-1,1.9843532E-2,-1.697672E-2,2.1352038E-2,-2.4391646E-2,9.537867E-3,-2.0433193E-2,-2.0473428E-2,-4.1502953E-2],"categories":[],"categories_nodes":[],"categories_segments":[],"categories_sizes":[],"default_left":[0,0,0,0,0,0,0,0,0,0,0,0,0,0,0,0,0,0,0,0,0,0,0,0,0,0,0,0,0,0,0],"id":30,"left_children":[1,3,7,11,5,13,9,15,21,-1,-1,23,19,-1,-1,17,29,-1,-1,-1,-1,25,27,-1,-1,-1,-1,-1,-1,-1,-1],"loss_changes":[9.741573E2,8.2074097E2,3.1050513E2,1.440968E2,4.4019885E2,1.3175708E2,2.9998938E2,1.22560974E2,8.174765E1,0E0,0E0,5.707147E1,1.0594623E2,0E0,0E0,1.17369965E2,3.4036926E1,0E0,0E0,0E0,0E0,5.1352882E1,4.5324444E1,0E0,0E0,0E0,0E0,0E0,0E0,0E0,0E0],"parents":[2147483647,0,0,1,1,4,4,2,2,6,6,3,3,5,5,7,7,15,15,12,12,8,8,11,11,21,21,22,22,16,16],"right_children":[2,4,8,12,6,14,10,16,22,-1,-1,24,20,-1,-1,18,30,-1,-1,-1,-1,26,28,-1,-1,-1,-1,-1,-1,-1,-1],"split_conditions":[2.5101826E-1,-1.0140749E0,1.061821E0,-9.875104E-1,-2.882326E-1,2.00001E0,7.389038E-1,4.045329E-1,2.00001E0,-3.5232268E-3,2.069737E-2,4.045329E-1,-2.0523414E-1,3.6273487E-2,1.803077E-2,-5.758302E-1,-1.1462568E0,-3.4111902E-2,-1.0381473E-2,-4.061955E-2,-1.573931E-2,1.5799267E0,-6.346153E-1,1.9843532E-2,-1.697672E-2,2.1352038E-2,-2.4391646E-2,9.537867E-3,-2.0433193E-2,-2.0473428E-2,-4.1502953E-2],"split_indices":[3,5,5,3,18,24,5,18,24,0,0,18,6,0,0,5,19,0,0,0,0,15,18,0,0,0,0,0,0,0,0],"split_type":[0,0,0,0,0,0,0,0,0,0,0,0,0,0,0,0,0,0,0,0,0,0,0,0,0,0,0,0,0,0,0],"sum_hessian":[1.6532514E4,1.1732547E4,4.7999663E3,2.252802E3,9.479745E3,3.965948E3,5.5137974E3,3.627733E3,1.1722335E3,3.501338E3,2.0124592E3,4.4932736E2,1.8034746E3,1.9833771E3,1.9825708E3,2.272953E3,1.35478E3,8.0931067E2,1.4636422E3,7.0040497E2,1.1030696E3,6.13617E2,5.586165E2,2.8308505E2,1.6624232E2,5.4534186E2,6.827518E1,1.910505E2,3.6756598E2,2.36074E2,1.1187059E3],"tree_param":{"num_deleted":"0","num_feature":"43215","num_nodes":"31","size_leaf_vector":"1"}},{"base_weights":[2.1538653E-3,3.777334E-1,-1.4430858E-1,-3.3166817E-1,2.0419249E-1,-7.800755E-2,-5.3311306E-1,-9.24162E-2,5.045671E-1,3.5397932E-3,-2.8281618E-2,3.697696E-1,-1.4097865E-1,-1.684318E-2,-3.710886E-2,2.8766176E-2,5.9927306E-3,6.1005044E-1,1.7401415E-1,7.9371285E-4,-3.161068E-2,1.0193785E-1,-5.003666E-1,3.5224542E-2,1.5826998E-2,-6.1343126E-3,2.3060096E-2,1.9014662E-2,-9.735308E-3,-1.32188E-2,-4.6448052E-2],"categories":[],"categories_nodes":[],"categories_segments":[],"categories_sizes":[],"default_left":[0,0,0,0,0,0,0,0,0,0,0,0,0,0,0,0,0,0,0,0,0,0,0,0,0,0,0,0,0,0,0],"id":31,"left_children":[1,7,3,5,11,9,13,21,17,-1,-1,15,19,-1,-1,-1,-1,23,25,-1,-1,27,29,-1,-1,-1,-1,-1,-1,-1,-1],"loss_changes":[9.065146E2,2.757473E2,7.7421466E2,3.9398584E2,2.3700778E2,2.4778738E2,1.7608105E2,7.8000656E1,1.2685895E2,0E0,0E0,1.4388403E2,1.0362953E2,0E0,0E0,0E0,0E0,7.6283325E1,7.523518E1,0E0,0E0,5.512707E1,3.1858742E1,0E0,0E0,0E0,0E0,0E0,0E0,0E0,0E0],"parents":[2147483647,0,0,2,2,3,3,1,1,5,5,4,4,6,6,11,11,8,8,12,12,7,7,17,17,18,18,21,21,22,22],"right_children":[2,8,4,6,12,10,14,22,18,-1,-1,16,20,-1,-1,-1,-1,24,26,-1,-1,28,30,-1,-1,-1,-1,-1,-1,-1,-1],"split_conditions":[-8.153046E-1,-1.0140749E0,6.697073E-1,-1.9656299E-1,1.604876E-1,8.3278775E-1,-5.5594098E-2,4.4502535E-1,5.6990206E-1,3.5397932E-3,-2.8281618E-2,1.028449E-1,9.064033E-1,-1.684318E-2,-3.710886E-2,2.8766176E-2,5.9927306E-3,4.8374152E-1,3.0065915E-1,7.9371285E-4,-3.161068E-2,2.00001E0,5.1999384E-1,3.5224542E-2,1.5826998E-2,-6.1343126E-3,2.3060096E-2,1.9014662E-2,-9.735308E-3,-1.32188E-2,-4.6448052E-2],"split_indices":[4,5,5,9,14,4,12,9,12,0,0,9,4,0,0,0,0,14,5,0,0,24,18,0,0,0,0,0,0,0,0],"split_type":[0,0,0,0,0,0,0,0,0,0,0,0,0,0,0,0,0,0,0,0,0,0,0,0,0,0,0,0,0,0,0],"sum_hessian":[1.6477604E4,4.6224614E3,1.1855143E4,7.7101143E3,4.145029E3,3.4133682E3,4.296746E3,9.82135E2,3.6403264E3,2.6159426E3,7.9742535E2,2.801223E3,1.3438059E3,2.217644E3,2.079102E3,1.5363116E3,1.2649113E3,2.7590388E3,8.812876E2,1.01930585E3,3.2449997E2,6.6572375E2,3.1641122E2,2.086336E3,6.727029E2,4.337466E2,4.4754102E2,3.4330353E2,3.2242026E2,2.0509798E2,1.1131325E2],"tree_param":{"num_deleted":"0","num_feature":"43215","num_nodes":"31","size_leaf_vector":"1"}},{"base_weights":[-7.8690087E-4,1.4431149E-1,-3.651491E-1,3.618057E-1,-7.8994595E-2,1.490953E-1,-3.112407E-1,5.335384E-1,1.096257E-1,-1.6066538E-1,-5.7183266E-1,1.3176654E-2,-1.711871E-2,3.010473E-3,-2.245105E-2,3.6577314E-2,1.6696949E-2,1.748197E-2,-5.6927013E-3,4.8670538E-2,-3.9751214E-1,1.2358117E-2,-1.45725375E-2,-2.9312775E-1,-6.891507E-1,-4.6863733E-3,-2.7167633E-2,-2.897333E-3,-2.8127631E-2,-2.9278938E-2,-4.6808288E-2],"categories":[],"categories_nodes":[],"categories_segments":[],"categories_sizes":[],"default_left":[0,0,0,0,0,0,0,0,0,0,0,0,0,0,0,0,0,0,0,0,0,0,0,0,0,0,0,0,0,0,0],"id":32,"left_children":[1,3,9,7,5,11,13,15,17,19,23,-1,-1,-1,-1,-1,-1,-1,-1,21,25,-1,-1,27,29,-1,-1,-1,-1,-1,-1],"loss_changes":[8.651787E2,5.68464E2,1.9689026E2,2.5672565E2,3.0599954E2,1.6401355E2,1.465037E2,1.3915118E2,1.2894868E2,1.1624933E2,7.557507E1,0E0,0E0,0E0,0E0,0E0,0E0,0E0,0E0,8.414356E1,4.8682312E1,0E0,0E0,4.3580082E1,4.1160034E1,0E0,0E0,0E0,0E0,0E0,0E0],"parents":[2147483647,0,0,1,1,4,4,3,3,2,2,5,5,6,6,7,7,8,8,9,9,19,19,10,10,20,20,23,23,24,24],"right_children":[2,4,10,8,6,12,14,16,18,20,24,-1,-1,-1,-1,-1,-1,-1,-1,22,26,-1,-1,28,30,-1,-1,-1,-1,-1,-1],"split_conditions":[2.598486E-1,-2.314261E-1,-2.5379443E-1,2.3116256E-1,2.00001E0,2.905755E-1,-9.20125E-1,2.00001E0,-5.7310756E-2,2.00001E0,-7.5007623E-1,1.3176654E-2,-1.711871E-2,3.010473E-3,-2.245105E-2,3.6577314E-2,1.6696949E-2,1.748197E-2,-5.6927013E-3,4.045329E-1,-6.923458E-1,1.2358117E-2,-1.45725375E-2,2.00001E0,6.8719214E-1,-4.6863733E-3,-2.7167633E-2,-2.897333E-3,-2.8127631E-2,-2.9278938E-2,-4.6808288E-2],"split_indices":[4,13,13,9,24,15,4,24,18,24,18,0,0,0,0,0,0,0,0,18,18,0,0,24,21,0,0,0,0,0,0],"split_type":[0,0,0,0,0,0,0,0,0,0,0,0,0,0,0,0,0,0,0,0,0,0,0,0,0,0,0,0,0,0,0],"sum_hessian":[1.6362775E4,1.170296E4,4.6598154E3,5.928316E3,5.774644E3,2.9135713E3,2.8610725E3,3.5260125E3,2.4023037E3,2.3432666E3,2.3165486E3,2.363661E3,5.4991046E2,7.742605E2,2.086812E3,1.7687256E3,1.7572869E3,1.1580315E3,1.2442721E3,1.2442959E3,1.0989707E3,7.859157E2,4.5838022E2,6.87292E2,1.6292567E3,3.569952E2,7.4197546E2,3.6761545E2,3.1967654E2,1.1503092E3,4.7894748E2],"tree_param":{"num_deleted":"0","num_feature":"43215","num_nodes":"31","size_leaf_vector":"1"}},{"base_weights":[-5.758504E-5,-1.8225697E-1,2.7962798E-1,1.8299444E-1,-3.392387E-1,4.9807534E-1,-5.746965E-3,-1.0558489E-1,-5.3186923E-1,2.8881014E-3,-2.5630632E-2,1.8130751E-1,-3.4371495E-1,3.5026374E-1,-1.4318906E-1,-1.8187203E-2,-3.633744E-2,2.1466663E-2,-4.3209023E-3,6.6685987E-1,3.1454504E-1,-5.5983695E-3,2.2820018E-2,-6.373475E-4,-4.0954392E-2,2.375344E-2,2.016678E-3,-6.811999E-3,-3.396983E-2,3.6237143E-2,1.651518E-2],"categories":[],"categories_nodes":[],"categories_segments":[],"categories_sizes":[],"default_left":[0,0,0,0,0,0,0,0,0,0,0,0,0,0,0,0,0,0,0,0,0,0,0,0,0,0,0,0,0,0,0],"id":33,"left_children":[1,3,5,13,7,19,11,9,15,-1,-1,17,27,21,23,-1,-1,-1,-1,29,25,-1,-1,-1,-1,-1,-1,-1,-1,-1,-1],"loss_changes":[8.294989E2,5.6522815E2,4.002927E2,1.6174393E2,3.102445E2,1.12456055E2,1.7612984E2,2.0724365E2,1.23537964E2,0E0,0E0,1.19127945E2,6.903802E1,9.617253E1,8.862184E1,0E0,0E0,0E0,0E0,3.665265E1,7.6761154E1,0E0,0E0,0E0,0E0,0E0,0E0,0E0,0E0,0E0,0E0],"parents":[2147483647,0,0,1,1,2,2,4,4,7,7,6,6,3,3,8,8,11,11,5,5,13,13,14,14,20,20,12,12,19,19],"right_children":[2,4,6,14,8,20,12,10,16,-1,-1,18,28,22,24,-1,-1,-1,-1,30,26,-1,-1,-1,-1,-1,-1,-1,-1,-1,-1],"split_conditions":[4.621177E-1,-8.153046E-1,-1.0809899E-1,4.022528E-1,-2.3050213E-1,5.7183087E-2,4.6226335E-1,5.930587E-1,6.0072344E-2,2.8881014E-3,-2.5630632E-2,1.7299788E-2,2.7393514E-1,-1.3139266E0,8.6298496E-1,-1.8187203E-2,-3.633744E-2,2.1466663E-2,-4.3209023E-3,1.0322195E0,4.6226335E-1,-5.5983695E-3,2.2820018E-2,-6.373475E-4,-4.0954392E-2,2.375344E-2,2.016678E-3,-6.811999E-3,-3.396983E-2,3.6237143E-2,1.651518E-2],"split_indices":[5,4,3,9,18,21,18,4,9,0,0,9,9,5,15,0,0,0,0,15,18,0,0,0,0,0,0,0,0,0,0],"split_type":[0,0,0,0,0,0,0,0,0,0,0,0,0,0,0,0,0,0,0,0,0,0,0,0,0,0,0,0,0,0,0],"sum_hessian":[1.6275918E4,9.855781E3,6.420137E3,2.962569E3,6.893212E3,3.636071E3,2.7840664E3,3.115623E3,3.7775889E3,2.2239668E3,8.9165625E2,1.7924603E3,9.9160596E2,1.9582765E3,1.0042925E3,2.0295421E3,1.7480469E3,9.301496E2,8.623108E2,1.8927556E3,1.7433154E3,3.6567697E2,1.5925995E3,8.426817E2,1.616108E2,1.0991431E3,6.441723E2,6.137012E2,3.7790482E2,1.6140143E3,2.787413E2],"tree_param":{"num_deleted":"0","num_feature":"43215","num_nodes":"31","size_leaf_vector":"1"}},{"base_weights":[3.0307123E-3,3.1216505E-1,-1.537276E-1,-4.6836853E-1,1.9099828E-2,2.6270074E-1,-2.576209E-1,-2.5669444E-1,4.1654783E-1,-4.293709E-5,-2.6686016E-2,2.5001502E-2,5.764346E-4,6.10585E-1,2.2284053E-1,-2.405818E-1,-6.2510896E-1,2.9096887E-3,2.8484697E-2,-2.714621E-3,-3.17749E-2,2.2532898E-1,-4.2288455E-1,3.4277737E-2,1.1522471E-2,-2.3425188E-2,-3.9555255E-2,-7.451528E-3,-3.566357E-2,3.154904E-2,1.6873261E-3],"categories":[],"categories_nodes":[],"categories_segments":[],"categories_sizes":[],"default_left":[0,0,0,0,0,0,0,0,0,0,0,0,0,0,0,0,0,0,0,0,0,0,0,0,0,0,0,0,0,0,0],"id":34,"left_children":[1,7,3,15,5,11,9,21,13,-1,-1,-1,-1,23,17,19,25,-1,-1,-1,-1,29,27,-1,-1,-1,-1,-1,-1,-1,-1],"loss_changes":[7.844607E2,3.2353052E2,5.841035E2,1.358172E2,4.6748508E2,2.1984854E2,2.3017307E2,6.779498E1,1.728609E2,0E0,0E0,0E0,0E0,6.535437E1,1.3159317E2,1.14286934E2,5.825824E1,0E0,0E0,0E0,0E0,1.6868149E1,4.9897095E1,0E0,0E0,0E0,0E0,0E0,0E0,0E0,0E0],"parents":[2147483647,0,0,2,2,4,4,1,1,6,6,5,5,8,8,3,3,14,14,15,15,7,7,13,13,16,16,22,22,21,21],"right_children":[2,8,4,16,6,12,10,22,14,-1,-1,-1,-1,24,18,20,26,-1,-1,-1,-1,30,28,-1,-1,-1,-1,-1,-1,-1,-1],"split_conditions":[-7.322544E-1,-1.198599E0,-2.990441E-1,-3.2488066E-1,-2.128135E-1,-5.5594098E-2,-5.5594098E-2,-7.000517E-1,-5.5594098E-2,-4.293709E-5,-2.6686016E-2,2.5001502E-2,5.764346E-4,1.0010686E0,7.158383E-1,5.2957916E-1,-5.5594098E-2,2.9096887E-3,2.8484697E-2,-2.714621E-3,-3.17749E-2,-9.979116E-1,2.00001E0,3.4277737E-2,1.1522471E-2,-2.3425188E-2,-3.9555255E-2,-7.451528E-3,-3.566357E-2,3.154904E-2,1.6873261E-3],"split_indices":[4,5,5,9,14,12,12,14,12,0,0,0,0,9,5,4,12,0,0,0,0,3,24,0,0,0,0,0,0,0,0],"split_type":[0,0,0,0,0,0,0,0,0,0,0,0,0,0,0,0,0,0,0,0,0,0,0,0,0,0,0,0,0,0,0],"sum_hessian":[1.6186017E4,5.4457554E3,1.0740262E4,3.807255E3,6.933007E3,3.6871824E3,3.2458245E3,8.441103E2,4.601645E3,1.6823264E3,1.5634979E3,1.895324E3,1.7918585E3,2.2977898E3,2.303855E3,1.5529412E3,2.2543137E3,1.5630591E3,7.4079596E2,1.0559618E3,4.9697943E2,2.1632323E2,6.2778705E2,1.9186027E3,3.791872E2,1.1619352E3,1.0923785E3,3.2386972E2,3.0391736E2,6.865704E1,1.4766618E2],"tree_param":{"num_deleted":"0","num_feature":"43215","num_nodes":"31","size_leaf_vector":"1"}},{"base_weights":[3.3724508E-3,1.0062601E-1,-4.5044816E-1,-2.5509146E-1,2.4937944E-1,4.6607602E-1,2.190592E-2,1.3348586E-2,-1.1660555E-2,1.4691353E-1,-3.9442903E-1,3.0256504E-2,9.90134E-3,1.9467551E-3,-2.6007125E-2,-5.7383525E-1,-8.5042484E-2,2.667855E-1,-4.1698566E-1,2.6146462E-2,-2.482016E-3,-4.441897E-1,-7.7940816E-1,-3.4773733E-2,-1.1322801E-2,-9.623208E-3,-4.649682E-2,2.1867864E-2,-2.1932477E-2,-2.8857488E-2,-4.263864E-2],"categories":[],"categories_nodes":[],"categories_segments":[],"categories_sizes":[],"default_left":[0,0,0,0,0,0,0,0,0,0,0,0,0,0,0,0,0,0,0,0,0,0,0,0,0,0,0,0,0,0,0],"id":35,"left_children":[1,3,15,9,5,11,7,-1,-1,19,13,-1,-1,-1,-1,21,17,27,25,-1,-1,23,29,-1,-1,-1,-1,-1,-1,-1,-1],"loss_changes":[7.0814E2,6.9922095E2,1.2761572E2,2.1832509E2,4.592705E2,1.7773706E2,2.8432532E2,0E0,0E0,7.42061E1,1.5768097E2,0E0,0E0,0E0,0E0,5.6064697E1,8.3724846E1,4.2086758E1,4.2292336E1,0E0,0E0,7.098804E1,1.1634979E1,0E0,0E0,0E0,0E0,0E0,0E0,0E0,0E0],"parents":[2147483647,0,0,1,1,4,4,6,6,3,3,5,5,10,10,2,2,16,16,9,9,15,15,21,21,18,18,17,17,22,22],"right_children":[2,4,16,10,6,12,8,-1,-1,20,14,-1,-1,-1,-1,22,18,28,26,-1,-1,24,30,-1,-1,-1,-1,-1,-1,-1,-1],"split_conditions":[8.5870457E-1,-6.4502674E-1,1.061821E0,-9.249717E-1,-2.128135E-1,5.777243E-1,-5.5594098E-2,1.3348586E-2,-1.1660555E-2,-5.6855875E-1,-7.6934475E-1,3.0256504E-2,9.90134E-3,1.9467551E-3,-2.6007125E-2,-8.7671556E-2,-3.5682443E-1,3.6152112E-1,4.8779792E-1,2.6146462E-2,-2.482016E-3,-2.0678206E-1,-7.876623E-1,-3.4773733E-2,-1.1322801E-2,-9.623208E-3,-4.649682E-2,2.1867864E-2,-2.1932477E-2,-2.8857488E-2,-4.263864E-2],"split_indices":[4,5,5,4,14,18,12,0,0,14,14,0,0,0,0,14,14,15,9,0,0,5,19,0,0,0,0,0,0,0,0],"split_type":[0,0,0,0,0,0,0,0,0,0,0,0,0,0,0,0,0,0,0,0,0,0,0,0,0,0,0,0,0,0,0],"sum_hessian":[1.6042594E4,1.3212038E4,2.8305557E3,3.8956257E3,9.316412E3,4.7706914E3,4.5457207E3,2.3185103E3,2.2272107E3,1.0026912E3,2.8929343E3,3.140341E3,1.6303506E3,6.506568E2,2.2422776E3,2.1156055E3,7.1495013E2,3.4717462E2,3.6777554E2,3.4363763E2,6.590536E2,1.2993348E3,8.162707E2,6.0217487E2,6.9716E2,2.5676376E2,1.1101177E2,2.798805E2,6.729413E1,2.1963293E2,5.9663776E2],"tree_param":{"num_deleted":"0","num_feature":"43215","num_nodes":"31","size_leaf_vector":"1"}},{"base_weights":[2.9058787E-3,-1.5943351E-1,2.6499295E-1,9.8657995E-2,-3.392421E-1,3.7955907E-1,-1.9775003E-1,-1.4295164E-1,-5.508984E-1,2.279336E-1,-3.09337E-1,5.8417815E-1,1.765595E-1,3.539916E-3,-2.0168222E-2,1.7948477E-2,-7.7774413E-3,2.9792711E-2,1.6409451E-3,-1.6227124E-2,-3.5889994E-2,-7.4567124E-2,-8.0780876E-1,4.681226E-3,-2.680963E-2,1.7972065E-2,3.634218E-2,8.18073E-3,-1.9036481E-2,-2.3149902E-2,-5.2059915E-2],"categories":[],"categories_nodes":[],"categories_segments":[],"categories_sizes":[],"default_left":[0,0,0,0,0,0,0,0,0,0,0,0,0,0,0,0,0,0,0,0,0,0,0,0,0,0,0,0,0,0,0],"id":36,"left_children":[1,3,5,9,7,11,21,13,19,15,23,25,17,-1,-1,-1,-1,-1,-1,-1,-1,27,29,-1,-1,-1,-1,-1,-1,-1,-1],"loss_changes":[6.790488E2,4.5739465E2,3.23705E2,2.1355435E2,2.4125665E2,2.0315875E2,9.102714E1,1.6786308E2,1.0534766E2,1.5453595E2,8.9117744E1,7.786035E1,1.4811581E2,0E0,0E0,0E0,0E0,0E0,0E0,0E0,0E0,7.3682205E1,1.5896835E1,0E0,0E0,0E0,0E0,0E0,0E0,0E0,0E0],"parents":[2147483647,0,0,1,1,2,2,4,4,3,3,5,5,7,7,9,9,12,12,8,8,6,6,10,10,11,11,21,21,22,22],"right_children":[2,4,6,10,8,12,22,14,20,16,24,26,18,-1,-1,-1,-1,-1,-1,-1,-1,28,30,-1,-1,-1,-1,-1,-1,-1,-1],"split_conditions":[5.0824875E-1,-6.655277E-1,8.825809E-1,5.6990206E-1,-5.5594098E-2,-2.5379443E-1,7.461436E-1,2.00001E0,-3.4596303E-1,8.663766E-1,-5.011516E-1,-2.0523414E-1,-8.6655396E-1,3.539916E-3,-2.0168222E-2,1.7948477E-2,-7.7774413E-3,2.9792711E-2,1.6409451E-3,-1.6227124E-2,-3.5889994E-2,2.0746048E-1,-3.2488066E-1,4.681226E-3,-2.680963E-2,1.7972065E-2,3.634218E-2,8.18073E-3,-1.9036481E-2,-2.3149902E-2,-5.2059915E-2],"split_indices":[5,4,4,12,12,13,15,24,18,18,13,6,4,0,0,0,0,0,0,0,0,21,9,0,0,0,0,0,0,0,0],"split_type":[0,0,0,0,0,0,0,0,0,0,0,0,0,0,0,0,0,0,0,0,0,0,0,0,0,0,0,0,0,0,0],"sum_hessian":[1.5957956E4,9.85442E3,6.103536E3,4.0465632E3,5.8078564E3,4.892443E3,1.2110935E3,3.0141775E3,2.793679E3,3.073233E3,9.7333057E2,2.435567E3,2.4568757E3,1.655803E3,1.3583746E3,2.290599E3,7.826337E2,6.2642725E2,1.8304485E3,1.1869083E3,1.6067705E3,1.0085663E3,2.0252724E2,3.5079825E2,6.225323E2,9.471179E2,1.4884491E3,5.675227E2,4.4104358E2,8.295418E1,1.1957305E2],"tree_param":{"num_deleted":"0","num_feature":"43215","num_nodes":"31","size_leaf_vector":"1"}},{"base_weights":[2.1908341E-3,-2.7218044E-1,1.4848341E-1,3.04573E-1,-1.6393794E-1,5.547369E-1,1.2616691E-1,-4.8568152E-2,-5.038059E-1,1.8816605E-2,-5.3924024E-3,7.8888096E-2,-4.3559495E-1,1.668542E-1,-3.5152888E-1,1.5225941E-2,-1.2198896E-2,-2.901402E-2,2.7145175E-3,3.1742826E-2,5.4702563E-3,1.9477237E-2,-3.964491E-3,-9.307773E-3,-3.1696044E-2,-3.5514614E-1,-6.8004334E-1,-6.2827626E-3,-2.973101E-2,-2.5954524E-2,-3.7240017E-2],"categories":[],"categories_nodes":[],"categories_segments":[],"categories_sizes":[],"default_left":[0,0,0,0,0,0,0,0,0,0,0,0,0,0,0,0,0,0,0,0,0,0,0,0,0,0,0,0,0,0,0],"id":37,"left_children":[1,7,3,5,11,19,9,13,25,-1,-1,15,23,21,17,-1,-1,-1,-1,-1,-1,-1,-1,-1,-1,27,29,-1,-1,-1,-1],"loss_changes":[6.411396E2,2.8768942E2,5.0810327E2,3.1000873E2,2.2904012E2,1.0311249E2,2.375329E2,1.8459166E2,7.12428E1,0E0,0E0,1.3367268E2,8.094818E1,9.064621E1,1.0913846E2,0E0,0E0,0E0,0E0,0E0,0E0,0E0,0E0,0E0,0E0,8.137871E1,1.2614258E1,0E0,0E0,0E0,0E0],"parents":[2147483647,0,0,2,2,3,3,1,1,6,6,4,4,7,7,11,11,14,14,5,5,13,13,12,12,8,8,25,25,26,26],"right_children":[2,8,4,6,12,20,10,14,26,-1,-1,16,24,22,18,-1,-1,-1,-1,-1,-1,-1,-1,-1,-1,28,30,-1,-1,-1,-1],"split_conditions":[-4.1437164E-1,-5.416512E-1,1.4775394E-1,-3.7911385E-1,-5.5594098E-2,9.5113194E-1,-5.7310756E-2,-9.4310984E-2,2.00001E0,1.8816605E-2,-5.3924024E-3,1.8839002E-1,-1.9656299E-1,-5.5594098E-2,4.7828728E-1,1.5225941E-2,-1.2198896E-2,-2.901402E-2,2.7145175E-3,3.1742826E-2,5.4702563E-3,1.9477237E-2,-3.964491E-3,-9.307773E-3,-3.1696044E-2,-2.9737243E-1,-7.462229E-1,-6.2827626E-3,-2.973101E-2,-2.5954524E-2,-3.7240017E-2],"split_indices":[5,4,4,14,12,15,18,14,24,0,0,9,9,12,6,0,0,0,0,0,0,0,0,0,0,14,21,0,0,0,0],"split_type":[0,0,0,0,0,0,0,0,0,0,0,0,0,0,0,0,0,0,0,0,0,0,0,0,0,0,0,0,0,0,0],"sum_hessian":[1.5971184E4,5.5539346E3,1.0417248E4,6.946644E3,3.4706045E3,2.8908862E3,4.0557578E3,2.8264631E3,2.7274717E3,1.9599435E3,2.0958142E3,1.8329211E3,1.6376833E3,1.6521438E3,1.1743192E3,1.0789604E3,7.539607E2,7.507231E2,4.2359616E2,2.44973E3,4.4115613E2,8.670904E2,7.850534E2,7.262274E2,9.1145593E2,1.4811273E3,1.2463444E3,7.57107E2,7.240203E2,3.6016776E2,8.861766E2],"tree_param":{"num_deleted":"0","num_feature":"43215","num_nodes":"31","size_leaf_vector":"1"}},{"base_weights":[6.3973264E-4,3.9435434E-1,-1.0027761E-1,-2.1029553E-1,2.917949E-1,-8.593266E-3,-4.2551488E-1,-2.2689143E-2,5.6991787E-3,-9.242435E-3,-2.9257327E-2,1.3757376E-1,5.6577253E-1,4.1944712E-1,-7.711846E-2,3.059103E-2,9.584981E-3,4.2690155E-1,-7.345541E-2,1.0229497E-2,-1.8097552E-2,1.1678709E-2,-1.6876375E-2,6.323449E-1,2.1033022E-1,3.981994E-2,2.5649369E-2,2.8961739E-2,4.8824805E-3,2.0194797E-2,-8.670693E-3],"categories":[],"categories_nodes":[],"categories_segments":[],"categories_sizes":[],"default_left":[0,0,0,0,0,0,0,0,0,0,0,0,0,0,0,0,0,0,0,0,0,0,0,0,0,0,0,0,0,0,0],"id":38,"left_children":[1,11,3,5,13,7,9,-1,-1,-1,-1,17,23,15,21,-1,-1,27,19,-1,-1,-1,-1,25,29,-1,-1,-1,-1,-1,-1],"loss_changes":[6.2972955E2,1.4225635E2,5.442333E2,4.2766602E2,1.3023097E2,2.7762894E2,1.829989E2,0E0,0E0,0E0,0E0,7.9149765E1,4.5744324E1,8.988071E1,5.765043E1,0E0,0E0,2.736216E1,6.0247406E1,0E0,0E0,0E0,0E0,3.1556885E1,2.2899422E1,0E0,0E0,0E0,0E0,0E0,0E0],"parents":[2147483647,0,0,2,2,3,3,5,5,6,6,1,1,4,4,13,13,11,11,18,18,14,14,12,12,23,23,17,17,24,24],"right_children":[2,12,4,6,14,8,10,-1,-1,-1,-1,18,24,16,22,-1,-1,28,20,-1,-1,-1,-1,26,30,-1,-1,-1,-1,-1,-1],"split_conditions":[-9.02494E-1,-4.6050265E-1,1.061821E0,-5.5594098E-2,8.3278775E-1,-1.0371404E0,-3.2488066E-1,-2.2689143E-2,5.6991787E-3,-9.242435E-3,-2.9257327E-2,-2.882326E-1,1.0197003E0,1.15880616E-1,-1.5379043E-1,3.059103E-2,9.584981E-3,4.4502535E-1,-5.5594098E-2,1.0229497E-2,-1.8097552E-2,1.1678709E-2,-1.6876375E-2,-1.7277168E-1,4.4502535E-1,3.981994E-2,2.5649369E-2,2.8961739E-2,4.8824805E-3,2.0194797E-2,-8.670693E-3],"split_indices":[4,5,5,12,4,5,9,0,0,0,0,18,15,18,9,0,0,9,12,0,0,0,0,18,9,0,0,0,0,0,0],"split_type":[0,0,0,0,0,0,0,0,0,0,0,0,0,0,0,0,0,0,0,0,0,0,0,0,0,0,0,0,0,0,0],"sum_hessian":[1.5847184E4,3.2326301E3,1.2614554E4,9.850817E3,2.7637356E3,5.085633E3,4.7651846E3,1.0973696E3,3.9882634E3,1.9011313E3,2.8640532E3,1.2948207E3,1.9378096E3,2.0531597E3,7.105759E2,1.1121034E3,9.4105646E2,5.456686E2,7.491521E2,3.8163348E2,3.6751862E2,3.2405307E2,3.865229E2,1.6314661E3,3.063435E2,6.84696E2,9.467701E2,3.725456E2,1.7312297E2,2.0359496E2,1.0274856E2],"tree_param":{"num_deleted":"0","num_feature":"43215","num_nodes":"31","size_leaf_vector":"1"}},{"base_weights":[-6.0206107E-3,1.8034989E-1,-2.3076549E-1,3.2202277E-1,-1.1701368E-1,-3.6103252E-1,8.322465E-2,5.724251E-1,1.3893658E-1,1.12502374E-1,-4.585183E-1,-1.3293791E-2,-3.3761572E-2,6.969078E-2,-4.5012352E-1,-1.5545246E-2,1.2442431E-2,3.0454344E-1,-2.6809558E-1,-6.385848E-3,2.2904364E-2,3.8941532E-2,1.7896237E-2,2.1259047E-2,-8.127482E-3,1.3882967E-2,-1.764114E-2,-3.56439E-3,-3.343889E-2,-3.1486247E-2,-8.768715E-3],"categories":[],"categories_nodes":[],"categories_segments":[],"categories_sizes":[],"default_left":[0,0,0,0,0,0,0,0,0,0,0,0,0,0,0,0,0,0,0,0,0,0,0,0,0,0,0,0,0,0,0],"id":39,"left_children":[1,3,5,7,13,9,17,21,15,25,11,-1,-1,19,29,-1,-1,23,27,-1,-1,-1,-1,-1,-1,-1,-1,-1,-1,-1,-1],"loss_changes":[6.605049E2,3.6320816E2,2.9242667E2,2.6761346E2,1.7308427E2,2.3329688E2,1.631282E2,1.0889392E2,1.669091E2,6.645186E1,1.7475562E2,0E0,0E0,1.3683968E2,4.9212326E1,0E0,0E0,7.258886E1,6.390441E1,0E0,0E0,0E0,0E0,0E0,0E0,0E0,0E0,0E0,0E0,0E0,0E0],"parents":[2147483647,0,0,1,1,2,2,3,3,5,5,10,10,4,4,8,8,6,6,13,13,7,7,17,17,9,9,18,18,14,14],"right_children":[2,4,6,8,14,10,18,22,16,26,12,-1,-1,20,30,-1,-1,24,28,-1,-1,-1,-1,-1,-1,-1,-1,-1,-1,-1,-1],"split_conditions":[-1.4817534E-1,1.604876E-1,8.0810034E-1,-2.3933555E-1,-9.506949E-2,-9.520455E-1,6.957644E-2,2.00001E0,-9.679439E-1,3.683029E-1,2.00001E0,-1.3293791E-2,-3.3761572E-2,6.005108E-1,6.697073E-1,-1.5545246E-2,1.2442431E-2,6.518318E-1,4.022528E-1,-6.385848E-3,2.2904364E-2,3.8941532E-2,1.7896237E-2,2.1259047E-2,-8.127482E-3,1.3882967E-2,-1.764114E-2,-3.56439E-3,-3.343889E-2,-3.1486247E-2,-8.768715E-3],"split_indices":[13,14,5,9,3,4,4,24,5,14,24,0,0,5,5,0,0,14,9,0,0,0,0,0,0,0,0,0,0,0,0],"split_type":[0,0,0,0,0,0,0,0,0,0,0,0,0,0,0,0,0,0,0,0,0,0,0,0,0,0,0,0,0,0,0],"sum_hessian":[1.5767184E4,8.619571E3,7.147613E3,5.8380615E3,2.7815098E3,5.0516523E3,2.09596E3,2.4648381E3,3.3732234E3,8.624019E2,4.1892505E3,2.2189707E3,1.9702799E3,1.7829669E3,9.9854285E2,6.620001E2,2.7112234E3,1.2859758E3,8.0998425E2,1.1825773E3,6.003896E2,1.2547802E3,1.210058E3,1.0220879E3,2.638879E2,6.367904E2,2.2561148E2,5.439727E2,2.6601154E2,6.030451E2,3.9549774E2],"tree_param":{"num_deleted":"0","num_feature":"43215","num_nodes":"31","size_leaf_vector":"1"}},{"base_weights":[-3.39315E-3,-2.4267007E-1,1.5059382E-1,-2.2650088E-1,2.5251052E-1,3.4209478E-1,-2.2396497E-1,-1.006018E-1,-5.470497E-1,2.2984399E-2,-5.236774E-4,1.8710387E-1,-2.7291563E-1,-7.6008877E-3,-5.500278E-1,-2.5878698E-2,-2.8307752E-3,-1.8177254E-2,1.5257324E-2,-4.0628678E-1,-9.1412526E-1,9.659411E-3,-1.6598647E-2,-1.02355415E-2,-3.4100708E-2,-9.040323E-4,-2.5338084E-2,-1.1470604E-2,-4.921947E-2,-1.1658951E-2,-3.187199E-2],"categories":[],"categories_nodes":[],"categories_segments":[],"categories_sizes":[],"default_left":[0,0,0,0,0,0,0,0,0,0,0,0,0,0,0,0,0,0,0,0,0,0,0,0,0,0,0,0,0,0,0],"id":40,"left_children":[1,7,3,13,5,9,25,11,19,-1,-1,17,15,21,29,-1,-1,-1,-1,23,27,-1,-1,-1,-1,-1,-1,-1,-1,-1,-1],"loss_changes":[5.8183014E2,2.6732162E2,3.693106E2,1.4480508E2,3.2295035E2,2.6399713E2,6.972519E1,2.0910123E2,1.0128418E2,0E0,0E0,1.0281856E2,1.3955537E2,7.956171E1,2.2705292E1,0E0,0E0,0E0,0E0,7.899843E1,2.5971344E1,0E0,0E0,0E0,0E0,0E0,0E0,0E0,0E0,0E0,0E0],"parents":[2147483647,0,0,2,2,4,4,1,1,5,5,7,7,3,3,12,12,11,11,8,8,13,13,19,19,6,6,20,20,14,14],"right_children":[2,8,4,14,6,10,26,12,20,-1,-1,18,16,22,30,-1,-1,-1,-1,24,28,-1,-1,-1,-1,-1,-1,-1,-1,-1,-1],"split_conditions":[-2.0523414E-1,1.7160842E-1,-8.987473E-1,-3.5900894E-1,1.0077809E0,7.016607E-1,-1.8769062E-1,-6.5832824E-1,7.5091565E-1,2.2984399E-2,-5.236774E-4,-1.152468E0,1.3920058E-1,2.7393514E-1,-8.118032E-1,-2.5878698E-2,-2.8307752E-3,-1.8177254E-2,1.5257324E-2,1.4561746E-1,-1.0121868E0,9.659411E-3,-1.6598647E-2,-1.02355415E-2,-3.4100708E-2,-9.040323E-4,-2.5338084E-2,-1.1470604E-2,-4.921947E-2,-1.1658951E-2,-3.187199E-2],"split_indices":[6,14,5,4,4,9,14,4,18,0,0,5,5,9,14,0,0,0,0,9,3,0,0,0,0,0,0,0,0,0,0],"split_type":[0,0,0,0,0,0,0,0,0,0,0,0,0,0,0,0,0,0,0,0,0,0,0,0,0,0,0,0,0,0,0],"sum_hessian":[1.5789072E4,6.182166E3,9.606906E3,2.0437499E3,7.5631562E3,6.3664536E3,1.1967029E3,4.2157896E3,1.9663767E3,4.773897E3,1.5925565E3,1.5791158E3,2.6366736E3,1.2195914E3,8.2415845E2,1.2365791E3,1.4000945E3,2.783907E2,1.3007252E3,1.4228583E3,5.435184E2,7.53545E2,4.6604648E2,8.2295966E2,5.998986E2,6.9314026E2,5.0356262E2,5.098103E1,4.9253732E2,1.7899818E2,6.451603E2],"tree_param":{"num_deleted":"0","num_feature":"43215","num_nodes":"31","size_leaf_vector":"1"}},{"base_weights":[2.221208E-3,2.0973252E-1,-1.9617909E-1,-6.149912E-4,-4.0541363E-1,3.054333E-1,-2.0657519E-1,4.9027276E-1,9.8945715E-2,2.5913623E-1,-1.9076209E-1,-2.3860212E-3,-5.0645983E-1,1.4583207E-2,-1.5994295E-2,-2.8040406E-4,2.8395107E-2,2.931832E-3,2.9202381E-2,-1.5515067E-2,-3.5607543E-2,-5.3720963E-1,3.5669185E-2,2.133943E-3,2.3280358E-2,1.2033302E-2,-1.7730465E-2,-8.982017E-3,2.359504E-2,-3.7473988E-2,-1.9855333E-2],"categories":[],"categories_nodes":[],"categories_segments":[],"categories_sizes":[],"default_left":[0,0,0,0,0,0,0,0,0,0,0,0,0,0,0,0,0,0,0,0,0,0,0,0,0,0,0,0,0,0,0],"id":41,"left_children":[1,5,3,9,11,7,21,17,15,23,13,27,19,-1,-1,-1,-1,-1,-1,-1,-1,29,25,-1,-1,-1,-1,-1,-1,-1,-1],"loss_changes":[6.435661E2,3.0446652E2,3.2699557E2,2.0411353E2,1.5722467E2,2.3707452E2,1.1444949E2,1.3264716E2,1.439485E2,7.804063E1,1.4872263E2,6.523213E1,1.2432562E2,0E0,0E0,0E0,0E0,0E0,0E0,0E0,0E0,1.7670868E1,6.613038E1,0E0,0E0,0E0,0E0,0E0,0E0,0E0,0E0],"parents":[2147483647,0,0,2,2,1,1,5,5,3,3,4,4,10,10,8,8,7,7,12,12,6,6,9,9,22,22,11,11,21,21],"right_children":[2,6,4,10,12,8,22,18,16,24,14,28,20,-1,-1,-1,-1,-1,-1,-1,-1,30,26,-1,-1,-1,-1,-1,-1,-1,-1],"split_conditions":[-2.700325E-1,7.881352E-1,2.00001E0,-2.882326E-1,-9.20125E-1,7.4522786E-2,9.306956E-2,-1.0602059E0,1.1310174E0,8.075235E-4,-8.9347076E-1,7.158383E-1,-5.5594098E-2,1.4583207E-2,-1.5994295E-2,-2.8040406E-4,2.8395107E-2,2.931832E-3,2.9202381E-2,-1.5515067E-2,-3.5607543E-2,-9.679439E-1,5.1999384E-1,2.133943E-3,2.3280358E-2,1.2033302E-2,-1.7730465E-2,-8.982017E-3,2.359504E-2,-3.7473988E-2,-1.9855333E-2],"split_indices":[13,4,24,18,4,21,5,5,5,5,4,5,12,0,0,0,0,0,0,0,0,5,18,0,0,0,0,0,0,0,0],"split_type":[0,0,0,0,0,0,0,0,0,0,0,0,0,0,0,0,0,0,0,0,0,0,0,0,0,0,0,0,0,0,0],"sum_hessian":[1.5629803E4,7.639462E3,7.9903413E3,4.1306094E3,3.8597317E3,6.2117676E3,1.4276946E3,3.2769756E3,2.934792E3,1.7456265E3,2.384983E3,7.7392365E2,3.085808E3,5.0330402E2,1.8816791E3,2.4005725E3,5.342194E2,5.851617E2,2.691814E3,1.5807882E3,1.5050198E3,6.0319214E2,8.245024E2,8.527928E2,8.928336E2,5.408172E2,2.8368518E2,5.638269E2,2.1009673E2,2.3809889E2,3.6509323E2],"tree_param":{"num_deleted":"0","num_feature":"43215","num_nodes":"31","size_leaf_vector":"1"}},{"base_weights":[3.0891201E-3,1.8966965E-1,-1.963975E-1,9.705483E-2,-3.450639E-1,4.0441286E-2,4.5920575E-1,3.0915108E-1,-1.2338166E-1,-1.5646018E-1,-5.4572695E-1,1.5458777E-3,-2.2417823E-2,-2.725685E-1,2.4857605E-1,2.6284612E-3,-1.9672427E-2,6.0987514E-1,2.057624E-1,1.9774873E-2,-1.5399977E-2,2.251496E-2,-6.4743723E-4,-3.195214E-2,-6.9063767E-3,1.162008E-2,3.5832133E-2,2.242535E-3,2.7953295E-2,-2.0092767E-2,1.062163E-2],"categories":[],"categories_nodes":[],"categories_segments":[],"categories_sizes":[],"default_left":[0,0,0,0,0,0,0,0,0,0,0,0,0,0,0,0,0,0,0,0,0,0,0,0,0,0,0,0,0,0,0],"id":42,"left_children":[1,5,3,13,9,7,17,19,11,15,23,-1,-1,29,21,-1,-1,25,27,-1,-1,-1,-1,-1,-1,-1,-1,-1,-1,-1,-1],"loss_changes":[5.800591E2,3.2388138E2,3.2861743E2,1.4195277E2,1.8911914E2,2.2825082E2,1.0945062E2,1.04770935E2,1.6154485E2,1.2775407E2,9.202728E1,0E0,0E0,4.6301876E1,9.482582E1,0E0,0E0,7.234216E1,6.0883698E1,0E0,0E0,0E0,0E0,0E0,0E0,0E0,0E0,0E0,0E0,0E0,0E0],"parents":[2147483647,0,0,2,2,1,1,5,5,4,4,8,8,3,3,9,9,6,6,7,7,14,14,10,10,17,17,18,18,13,13],"right_children":[2,6,4,14,10,8,18,20,12,16,24,-1,-1,30,22,-1,-1,26,28,-1,-1,-1,-1,-1,-1,-1,-1,-1,-1,-1,-1],"split_conditions":[2.00001E0,4.7828728E-1,-5.6855875E-1,-5.988957E-1,-5.5594098E-2,-3.6765322E-1,4.6835773E-2,1.3740808E0,1.604876E-1,1.7299788E-2,1.1771485E0,1.5458777E-3,-2.2417823E-2,1.1618087E0,1.4561746E-1,2.6284612E-3,-1.9672427E-2,-9.2181283E-1,7.158383E-1,1.9774873E-2,-1.5399977E-2,2.251496E-2,-6.4743723E-4,-3.195214E-2,-6.9063767E-3,1.162008E-2,3.5832133E-2,2.242535E-3,2.7953295E-2,-2.0092767E-2,1.062163E-2],"split_indices":[24,6,14,5,12,9,13,15,14,9,5,0,0,6,9,0,0,5,5,0,0,0,0,0,0,0,0,0,0,0,0],"split_type":[0,0,0,0,0,0,0,0,0,0,0,0,0,0,0,0,0,0,0,0,0,0,0,0,0,0,0,0,0,0,0],"sum_hessian":[1.5582472E4,8.0517197E3,7.530752E3,2.5323997E3,4.9983525E3,5.1831978E3,2.8685217E3,1.9628143E3,3.2203835E3,2.5775173E3,2.420835E3,2.184215E3,1.0361685E3,7.3605536E2,1.7963442E3,1.3699589E3,1.2075585E3,1.7981399E3,1.0703818E3,1.722216E3,2.4059839E2,1.01371155E3,7.8263275E2,1.9693943E3,4.5144073E2,3.9716183E2,1.4009781E3,7.3620496E2,3.3417688E2,5.8127594E2,1.5477942E2],"tree_param":{"num_deleted":"0","num_feature":"43215","num_nodes":"31","size_leaf_vector":"1"}},{"base_weights":[-2.9231894E-3,2.4209419E-1,-1.5270467E-1,1.7101827E-1,-2.6523367E-1,-2.9693466E-2,-4.2592067E-1,3.259766E-1,-2.6038232E-1,-1.1309539E-2,1.7284324E-2,5.225095E-1,1.18968986E-1,-2.6314443E-2,-3.1520377E-3,-7.7031136E-2,3.894833E-1,2.2627188E-2,-1.3550966E-3,6.349174E-3,-2.6200343E-2,2.9997775E-2,2.0160462E-5,2.468363E-2,-2.5778108E-3,-3.9719945E-1,2.445961E-1,1.8059636E-3,-2.8278148E-2,2.7033824E-2,-7.0314384E-3],"categories":[],"categories_nodes":[],"categories_segments":[],"categories_sizes":[],"default_left":[0,0,0,0,0,0,0,0,0,0,0,0,0,0,0,0,0,0,0,0,0,0,0,0,0,0,0,0,0,0,0],"id":43,"left_children":[1,7,3,15,5,9,13,11,25,-1,-1,21,17,-1,-1,19,23,-1,-1,-1,-1,-1,-1,-1,-1,27,29,-1,-1,-1,-1],"loss_changes":[5.7227374E2,2.4943988E2,3.5258444E2,1.3533762E2,2.7180322E2,2.1498663E2,1.5545642E2,2.0621124E2,5.860813E1,0E0,0E0,1.051546E2,1.2039227E2,0E0,0E0,1.06768936E2,6.103952E1,0E0,0E0,0E0,0E0,0E0,0E0,0E0,0E0,4.866156E1,2.07383E1,0E0,0E0,0E0,0E0],"parents":[2147483647,0,0,2,2,4,4,1,1,5,5,7,7,6,6,3,3,12,12,15,15,11,11,16,16,8,8,25,25,26,26],"right_children":[2,8,4,16,6,10,14,12,26,-1,-1,22,18,-1,-1,20,24,-1,-1,-1,-1,-1,-1,-1,-1,28,30,-1,-1,-1,-1],"split_conditions":[-4.7949675E-1,1.0782586E0,-7.000517E-1,-4.5323495E-2,-6.4762247E-1,4.621177E-1,1.1310174E0,